1000 128
310 0.11653992 -0.4525374 0.31804147 0.060927764 0.33238596 -0.31517217 0.23016268 -0.0020174063 0.29711032 0.174731 0.23617725 0.4096902 -0.16458912 -0.13905792 -0.20918092 0.08522472 -0.25206095 0.06338947 -0.3021062 0.2391402 0.1928974 0.3342138 0.010812977 -0.23685528 -0.10514686 -0.03168231 -0.13786097 0.18947284 0.010973305 -0.19558677 -0.17438246 0.19267271 -0.098007984 -0.00652574 0.21378174 0.007391142 0.17055681 -0.2786726 0.38835862 0.048285086 0.024277663 0.35332063 -0.13878165 -0.115995474 0.25677082 0.040222794 0.052672856 0.09082303 -0.0074768006 0.002551643 0.19082274 -0.1102858 -0.100128524 0.359649 0.54668057 -0.017909316 0.12417448 -0.264309 -0.30988035 0.18128446 0.04066932 -0.043135375 -0.13738912 0.06955213 0.053673714 -0.056376234 -0.074217744 0.008673264 0.13387105 0.17510012 -0.014355809 -0.34486383 -0.37484562 -0.19937441 -0.05096832 -0.27693614 0.09542597 0.014616542 -0.110018395 0.14202075 -0.099199034 0.2524499 0.24302378 -0.07775888 -0.075222075 0.5274021 -0.21055253 -0.24609034 -0.10876487 0.46678117 0.10299207 0.0180813 -0.033141155 -0.22953127 0.39982182 0.052638043 -0.18051088 -0.61685556 0.062736586 0.13793916 -0.35129893 -0.019175446 -0.090879 0.22540924 0.16564578 -0.070451066 -0.23137322 0.05727727 -0.0018073185 -0.16806136 -0.08754944 -0.39348224 0.41214034 0.37985903 0.091741376 0.0675026 -0.24588671 0.044002343 -0.02964589 -0.103318065 -0.2552178 -0.14012872 -0.10947552 0.37719518 -0.14434485 0.0009576035 -0.21829443 -0.08313925
340 0.020269578 -0.19689867 0.13814367 -0.01078554 0.35914323 -0.30775273 0.15113933 0.062387977 0.112394206 0.1375643 0.1796745 0.36999655 -0.121396475 0.08555178 -0.21204777 0.11891155 -0.37758046 0.063695356 -0.21977259 0.21935637 0.1666877 0.26119104 -0.09060142 -0.24202493 -0.237366 0.15347102 -0.1721572 0.04486838 0.0050694686 -0.29097557 -0.045588613 -0.025295991 -0.48251936 -0.18050867 0.2607695 0.25950706 0.16075642 -0.029063711 0.37524834 0.0004969439 -0.0069132564 0.20624149 -0.08064183 -0.31315497 0.35035795 -0.02126877 -0.0058599985 0.021731922 -0.08576867 -0.08628274 0.20332687 -0.034729254 -0.3141093 0.3485364 0.41546115 -0.067368984 -0.022330463 -0.3889965 -0.34966967 0.059840668 0.039426364 0.01763435 0.032973293 0.011394894 0.25453135 -0.02767661 -0.13461423 0.09704613 0.008980957 0.016097657 0.08196924 -0.23748556 -0.38213086 -0.26206818 -0.059450567 -0.23296863 0.07509776 0.012286079 -0.13926135 0.18909389 -0.008674698 0.13649528 0.13458523 -0.08483772 0.23833178 0.31060585 0.0764142 -0.28880104 0.0031499097 0.589292 -0.11514272 -0.0037069 -0.4029513 -0.31696582 0.3116034 -0.010323983 -0.07551007 -0.59038377 -0.13850904 0.562454 -0.22315669 0.007319169 -0.21815805 0.020548908 -0.00023925341 0.11487571 -0.20601404 0.10331027 -0.16323903 -0.019828262 -0.19420658 -0.15163055 0.3551914 0.19492233 0.03893326 0.012658364 -0.17883125 0.035522252 0.13270725 0.089326024 -0.118467115 -0.13433366 0.09537069 0.37431687 -0.15566255 -0.053877126 -0.021944169 -0.21052285
184 0.17495103 -0.31767 0.213401 -0.09151341 0.17322126 -0.16664994 0.01020983 0.09305823 0.08328632 0.32691535 0.11153515 0.29769054 -0.017889883 -0.078192055 -0.18876703 0.16031751 -0.2589534 0.3282017 -0.17327523 0.21126579 0.27110505 0.16964377 -0.015648903 -0.30743352 -0.12019132 0.06781162 -0.3615114 0.11472363 0.16530667 -0.3450031 -0.0718169 0.02463437 -0.22885028 -0.15639769 0.22488128 0.032111198 0.08980915 0.055373736 0.52884424 -0.0136198 -0.077587835 0.37373117 0.008872153 -0.21156436 0.1468464 0.089390084 -0.01890086 0.04245571 -0.034369018 -0.00018128242 0.17532407 -0.1437397 -0.09639079 0.5380384 0.33095035 0.07658606 0.19764298 -0.21405801 -0.25076067 0.017223118 0.10862246 -0.025523743 -0.07618411 0.038975876 0.09370189 -0.017997688 -0.015068952 0.11814365 0.13995932 0.067418054 0.08328083 -0.34405193 -0.2810068 -0.25668967 0.23915547 -0.24936064 0.06278863 -0.08539942 -0.05643608 0.24032135 -0.055144113 0.118121 0.19530559 0.035705734 0.03496227 0.3741705 -0.07428593 -0.49441278 -0.19244717 0.48704746 0.042373795 0.102080114 -0.1340018 -0.32154945 0.20569907 0.044253685 -0.30104184 -0.595896 -0.13458672 0.32685694 -0.2022997 0.0602923 -0.30833465 0.3452762 0.029735368 -0.08583266 -0.13146798 0.10641823 0.04643804 0.015443725 -0.10185036 -0.18762442 0.32270235 0.24095467 0.058708996 0.067243285 -0.18330616 0.23180693 0.15012093 0.05353926 -0.099001065 -0.26304308 -0.11529015 0.2183245 -0.18457438 0.037018217 -0.21224287 -0.02977271
168 -0.06695615 -0.418849 0.34807524 0.05470397 0.19897456 -0.13735986 0.06959667 0.14045131 -0.10685994 0.20502356 0.23824996 0.3093054 0.14242893 -0.27993822 -0.14712203 0.1987664 -0.43286783 0.07473447 -0.200335 0.13518295 0.17657773 0.16797309 0.10658754 -0.40547672 -0.19175047 0.1696399 -0.11457304 0.1989094 0.059463575 -0.18710688 -0.061452884 0.026393043 -0.28454363 0.122018315 0.29224533 0.21347457 0.09440398 -0.04124704 0.44189647 0.19379899 -0.0885862 0.2046876 -0.13577439 -0.17828082 0.12736942 -0.1574839 0.08868789 0.08255062 -0.17814648 -0.1452883 0.14751539 0.016676541 -0.034197923 0.29515633 0.44710094 -0.14682858 0.13113198 -0.4925604 -0.21423976 0.16551524 -0.007109839 0.03327208 -0.037341993 -0.18789583 0.023921464 0.002379715 -0.12687731 -0.020128164 0.0032300008 0.1438145 0.24387716 -0.1558487 -0.34029734 -0.32362175 0.12816991 -0.21137302 0.061750416 0.034159124 -0.071341135 0.15728192 -0.07465986 0.20323014 0.23646583 -0.111936904 0.18966907 0.33828944 -0.094448775 -0.44605413 -0.25980043 0.5099442 -0.050399553 0.13150425 -0.2558881 -0.3817172 0.32966703 -0.009673553 -0.08111726 -0.65988714 -0.21174222 0.27853405 -0.31607425 -0.040482078 -0.2734577 0.21142349 -0.02809569 0.0038692527 -0.33213705 0.096397154 -0.13900381 -0.0069183325 0.11822678 -0.14021854 0.3658737 0.14536937 0.10996643 -0.051836584 -0.14141542 0.12711304 0.08720822 0.005649067 -0.1103674 -0.22726052 -0.07951529 0.30457562 -0.14282559 -0.09079327 0.025356442 -0.21113175
371 0.1331351 -0.29200372 0.20189281 -0.19819072 0.17970364 -0.37274462 0.16795328 0.019145807 -0.011310934 0.23298097 0.10703521 0.40177444 -0.05376049 -0.14740618 -0.08804548 0.06491388 -0.24624576 0.12460345 -0.2041626 0.061035957 0.16928057 0.2710561 -0.049887467 -0.3674879 0.007240283 0.13905051 -0.2658145 0.21198092 0.021159753 -0.3470583 -0.2203984 0.041888814 -0.40914798 -0.21689814 0.36824724 0.17449875 0.08311659 -0.04197737 0.2431847 0.09751574 -0.097811855 0.36036736 -0.1531858 -0.17420383 0.28457826 -0.10559183 -0.06960647 -0.114310645 0.051901713 -0.04694632 0.20141499 -0.09821637 -0.05368457 0.2660031 0.29243794 -0.092848256 0.15280984 -0.28440613 -0.15662937 0.12635237 -0.037000477 0.10524816 -0.17031632 -0.030141769 0.082316004 0.029880319 0.009369258 -0.06549689 -0.0006617162 0.19504589 0.21747322 -0.31610423 -0.25618678 -0.28143233 0.08507331 -0.24976741 0.14453116 0.16476451 0.008703693 0.18465073 0.07532536 0.18734062 0.21904413 0.026958937 0.28572348 0.3257959 -0.05365202 -0.4714628 -0.15005223 0.47060943 -0.123992145 -0.02582347 -0.1706735 -0.25106165 0.26558506 0.012056258 -0.055037934 -0.46959677 -0.18939781 0.32387313 -0.08334477 0.103472196 -0.42609605 0.3684398 0.13418812 0.02381015 -0.14924234 0.1236264 -0.097677685 -0.16716163 -0.13866803 -0.06737383 0.2876843 0.317775 0.06905946 -0.30790457 -0.07445904 -0.20593262 -0.02610907 0.16224675 -0.22373217 -0.13199191 -0.052345205 0.32061267 -0.21747656 -0.047270395 -0.14431113 -0.26581776
434 0.26672286 -0.37123522 0.5385908 -0.17541896 0.2684094 -0.30374047 0.0039267493 0.13688803 0.018346058 0.11723772 0.14147148 0.100695916 -0.07198001 -0.09213849 -0.28687617 0.20335919 -0.302525 0.021092584 -0.35070956 0.16711566 0.30895445 0.38264582 -0.009565751 -0.40851063 -0.16537482 0.066626206 -0.23172203 0.19577718 -0.079090506 -0.29930836 -0.06179814 0.09867687 -0.20190948 -0.11234761 0.35840663 0.09511898 0.2396743 -0.1608755 0.18410891 0.21612749 -0.145215 0.36352196 -0.13197948 -0.2606465 0.1847522 0.023220718 0.079313695 -0.11913543 0.04382106 -0.060781058 0.1250709 -0.14697546 -0.19350761 0.39749697 0.3576194 -0.045791157 0.111676164 -0.28116438 -0.013431241 0.1855394 0.19802244 0.035297118 -0.23862372 0.1346848 0.11873063 -0.07865907 -0.048839923 0.0069846786 -0.03863936 0.13341182 0.044362854 -0.4406039 -0.22077774 -0.20400462 0.070279546 -0.26941314 0.0586559 0.06466808 -0.2177598 0.18840116 0.24307705 0.094242066 0.054227144 -0.19426915 0.12834802 0.34178817 -0.033480655 -0.2890593 -0.065164365 0.494668 0.040794604 0.2043826 -0.17101309 -0.30362445 0.2634933 -0.07233182 -0.14593294 -0.48767358 0.06173711 0.2637347 -0.17299648 0.014178912 -0.15208219 0.26265332 0.32057098 0.1913381 -0.13069095 -0.07723831 0.0701575 -0.21908079 -0.121611215 -0.29566762 0.33085862 0.06776146 0.1837136 -0.039794028 -0.18914084 0.13264874 0.030810662 0.01489269 -0.14549825 -0.24627088 0.082756504 0.35389093 -0.25395593 -0.09948091 -0.14829175 -0.13825299
300 0.05043212 -0.335409 0.390983 0.09422755 0.13478452 -0.011083984 0.009855981 -0.035948224 0.3037593 0.109594025 0.1718271 0.39584005 -0.0631433 0.02195205 -0.16869321 0.056752842 -0.4127273 0.09441646 -0.28580314 0.19761023 0.35970587 0.35753253 -0.10565313 -0.3424796 -0.1259359 0.17280053 -0.19267765 0.10956674 -0.044157207 -0.20533578 -0.0649031 -0.15053707 -0.44392282 -0.09862842 0.2659004 0.2539794 0.092515826 0.15557668 0.34821054 0.07357592 -0.11270093 0.38958853 -0.052472476 -0.2803133 0.29455167 -0.024098206 0.15074275 -0.030159064 -0.22184461 -0.048815325 0.14874074 -0.14098796 -0.116978504 0.49929088 0.4436495 0.055557862 -0.039257295 -0.4240568 -0.12152504 0.20523684 0.015471546 0.059353657 -0.13992846 -0.06201903 0.15805823 -0.059118066 -0.025478616 0.028123833 0.04257261 0.0402053 0.15967418 -0.3354132 -0.3531815 -0.1717378 -0.200226 -0.21807657 0.13823248 0.058123685 -0.099699296 0.01803252 0.08510921 0.030695293 0.19841817 -0.010295309 0.1850803 0.2763526 0.010623302 -0.3216852 -0.3021326 0.36942098 -0.119567916 -0.0066162637 -0.15938894 -0.2848248 0.11157318 0.11703617 -0.09245901 -0.46776107 -0.2652854 0.25177574 -0.19998847 0.14881606 -0.2579379 0.14997678 -0.09992257 0.13702916 -0.2464849 0.22493415 -0.31125993 0.014873864 0.05514946 -0.2577427 0.3707167 0.17695582 0.09985628 -0.08189122 -0.2540255 0.07242095 -0.11310528 0.08224068 -0.120195545 -0.22439066 -0.03103833 0.4812868 -0.14377242 -0.16635372 0.044717036 -0.17754024
34 -0.13336352 0.22520056 -0.0056341346 0.19346386 0.12070896 0.1314744 -0.0038944236 -0.17572373 0.07939557 0.047114473 0.028416876 -0.2354082 0.082973376 -0.033366952 0.53850853 0.20940572 -0.21891198 -0.1140721 -0.525134 0.32398143 0.14492653 0.021292748 -0.23154956 -0.54695517 -0.36085665 0.08453436 -0.3304391 0.059000533 0.14838195 -0.18390849 -0.16256763 0.18387115 0.13537082 -0.03191342 -0.008367209 0.27932543 -0.058820605 0.11804663 -0.0944737 0.33863726 -0.1571802 0.06573518 -0.04161079 0.17364207 0.29244348 0.045285948 -0.23901314 -0.26021755 0.06877756 -0.111399874 0.05950214 0.22387542 0.08392074 -0.05764589 -0.7865774 0.075339995 0.44828722 0.24679227 -0.04085131 -0.13135356 -0.16539282 0.10409396 0.043219145 -0.14077736 0.18671685 -0.13430835 0.14203459 -0.005403218 -0.206265 -0.4666983 -0.32125488 -0.19718108 -0.44806528 -0.23061825 0.26856747 -0.19648355 -0.14064772 -0.2980243 -0.4251255 0.10287356 0.03211768 -0.3312312 0.032145943 0.34365413 0.16525212 0.2380566 -0.1678533 -0.2363539 0.24938573 -0.039731666 -0.3159119 0.062307756 0.32819775 -0.12262041 0.026891617 -0.018150149 -0.31389117 -0.125317 0.0077045998 0.21276815 -0.28399158 -0.120570116 -0.10283935 -0.10219788 0.25887606 0.11021509 -0.0048665823 0.16014022 0.4092443 0.023321897 -0.02729296 -0.41940752 0.24932489 -0.02864652 0.04861796 -0.08337647 0.23043531 0.06728817 0.42771125 0.0938862 -0.07997839 -0.1286609 -0.36158603 -0.23144405 -0.15948607 -0.2565457 -0.085667156 0.0070022764
387 0.07348133 -0.3218141 0.35942286 -0.08064474 0.24414591 -0.12773444 0.18866818 0.089835346 0.009699519 0.22097836 0.21443278 0.23527282 -0.09753508 -0.2126803 -0.022869611 -0.013039406 -0.58319163 0.23293105 -0.24211 0.12189802 0.13546951 0.118274935 -0.054433737 -0.2703085 0.03265323 0.2155236 -0.22945373 0.34697792 -0.007662874 -0.31699198 -0.09065196 0.14249139 -0.25138283 -0.029347433 0.34276113 0.104997694 0.029097462 -0.17358282 0.15979443 0.22728203 0.0055570942 0.27759424 -0.15149511 -0.0817895 0.2591977 0.0023737033 -0.009867608 -0.12210572 -0.103508875 0.0253317 0.30727565 -0.05535463 0.00422503 0.3356505 0.43061998 0.04986722 0.011390492 -0.15721732 -0.18839012 0.10566752 0.029456977 0.10225299 -0.118947804 0.031612605 0.14745973 -0.07446715 -0.049981236 -0.19724175 -0.035994478 0.19010489 0.2597689 -0.12978297 -0.21822393 -0.34989884 0.021584226 -0.2506148 0.033945303 -0.008526727 0.015243596 0.16813749 0.17849001 0.08738227 -0.06783411 -0.039433707 0.12503946 0.34795514 0.0026312647 -0.4287999 -0.19224139 0.58419675 -0.062528715 -0.06354924 -0.21621598 -0.3835119 0.29810575 -0.077409826 -0.14049748 -0.6397482 -0.00641338 0.24625067 -0.32383192 0.07516392 -0.32013282 0.30248803 0.10798077 0.11641941 -0.26512387 -0.058642242 -0.20028064 -0.244945 0.05039249 -0.22164918 0.16517739 0.31650448 -0.020325424 -0.06096231 -0.15335307 -0.05054141 0.0117115695 0.057880357 -0.371901 -0.2322523 0.008237763 0.25893041 -0.2402024 -0.07620081 -0.3242316 -0.20425282
969 0.35903636 -0.19912556 0.43289053 0.018944446 0.20071967 -0.22396792 0.050084393 -0.10300385 0.13791041 0.13317843 0.1199759 0.3308072 -0.13254848 -0.1289569 -0.091441914 0.28650242 -0.42261866 0.17542082 -0.18331559 0.3220324 -0.022657642 0.32564348 0.060506634 -0.26927364 -0.16241382 0.2348696 -0.315669 0.26199818 -0.03917805 -0.23308773 -0.08739022 -0.060368914 -0.3811757 -0.18315166 0.3281787 0.21690717 0.16168688 0.10242273 0.38263938 0.02542309 0.07057539 0.44250697 -0.03315807 -0.32751292 0.4018269 -0.08684554 0.1578556 -0.17139295 -0.076323695 -0.073661596 0.037417136 -0.11102044 -0.18671587 0.37736887 0.3447065 0.13022865 0.028426427 -0.31924447 -0.2844393 -0.068608575 0.023661682 0.0964944 -0.16166526 0.03697649 0.0059941774 -0.12704298 0.1404537 -0.2248653 -0.008714003 0.16440247 0.22403885 -0.27581558 -0.32505432 -0.2500341 -0.15480316 -0.020855647 0.08846449 0.010460487 -0.050742812 0.12279026 0.14442594 0.10747805 0.07728242 -0.2769342 0.019245746 0.38452905 -0.008225994 -0.23968826 -0.1998809 0.4308539 -0.21819754 -0.2076988 -0.13933988 -0.2182102 0.31553566 -0.006231361 -0.022450024 -0.65308285 -0.14126262 0.25651446 -0.23700845 -0.08570684 -0.2540623 0.29326877 -0.06263257 0.047831185 -0.047462624 0.39549825 -0.2856716 -0.11557134 -0.036139242 -0.071339905 0.18846707 0.24799259 0.07571163 -0.026658101 -0.005548642 -0.074921496 0.0032922083 -0.07138839 -0.20236726 -0.20558466 -0.026692273 0.18224537 -0.24769363 -0.20541547 -0.1437414 -0.13896105
866 0.03491073 -0.14507431 0.414929 0.0031829202 0.110472314 -0.28914723 -0.015665414 -0.103334025 0.005138004 0.15425134 0.2757087 0.2853844 -0.019946344 -0.31779036 -0.30684453 0.11404477 -0.37576342 0.16786236 -0.2718704 0.12441115 0.09036203 0.14335664 -0.049358536 -0.40666965 -0.20681098 0.094560035 -0.30581135 0.20497975 0.0887035 -0.3188906 -0.038867485 0.071590826 -0.47971666 -0.15413637 0.4884072 0.3181459 0.24816836 -0.045154955 0.47566327 0.020488888 -0.06671783 0.22846094 -0.07825038 -0.29085228 0.32454044 0.10084877 -0.11105513 -0.12560691 0.05708399 0.15539134 0.114680484 -0.014052652 -0.07649607 0.38172 0.5172169 0.04803437 -0.0497048 -0.39509958 -0.14999881 0.14231683 0.05932597 0.14949434 -0.034404885 0.14601718 0.22169903 -0.048862554 0.056182038 -0.17154911 0.043116353 0.19121385 0.13223599 -0.05540407 -0.432702 -0.1215492 -0.072582774 -0.010882338 0.14224571 0.039369933 -0.20617586 0.15889677 0.03470081 0.19829161 0.083233 -0.054128274 0.20158203 0.40505058 -0.063885584 -0.31535703 -0.07816536 0.31430432 -0.04996229 -0.07894322 -0.057361346 -0.23857613 0.4441 0.114362195 0.009231441 -0.49791285 -0.20580131 0.33603805 -0.21718904 0.05717008 -0.2744305 0.34121773 0.15555035 0.039495002 -0.075661875 0.19222471 -0.12884322 -0.034483172 -0.036990166 -0.16359654 0.30540958 0.12962821 0.120483905 -0.19923668 -0.029516356 0.13857834 0.13765243 -0.096043475 -0.054566305 -0.26237586 -0.14337927 0.34567147 -0.08552498 -0.1497697 -0.037441947 -0.2232789
410 0.0014351554 -0.3493037 0.35414317 -0.18096575 0.022097345 -0.35925564 0.121132374 0.2803037 0.11727822 0.16555859 -0.0040847417 0.47591886 -0.10552693 -0.3332889 -0.23170575 0.061783005 -0.30649778 0.1871998 -0.36882484 0.15016931 0.15875244 0.16340421 -0.022586819 -0.21003845 -0.115019 0.047682125 -0.30763546 0.22845425 0.002484603 -0.45245278 -0.36064216 0.07901881 -0.25180936 -0.05603022 0.41689795 0.094491534 0.04559505 -0.026726317 0.25467607 0.04970987 -0.041610807 0.25956553 -0.06713294 -0.05649369 0.309158 -0.11342458 -0.009410187 -0.07549299 0.08317816 0.13528076 0.21677604 0.0064461655 -0.22843093 0.3986978 0.4329694 0.03618421 0.23554973 -0.30538768 -0.14841941 0.08298644 -0.061771512 0.039174777 -0.23308936 0.041596636 0.16419725 -0.022355976 0.067599855 -0.30148047 0.114474624 0.111574166 0.13048294 -0.19644657 -0.24376746 -0.14815383 0.028831806 -0.057466775 0.008437223 0.075709544 -0.02154429 0.30486155 0.057479534 -0.060665626 0.11877868 -0.09593487 0.037362922 0.43200752 0.1003843 -0.39582893 -0.10956377 0.52758545 -0.09696893 -0.043087382 -0.065379485 -0.1096663 0.36811095 0.04075014 -0.049948577 -0.56353194 -0.030022435 0.27972713 -0.25682828 0.018400919 -0.3855567 0.38489506 0.05491411 0.017862732 -0.28940016 0.17583753 -0.052967947 -0.18990333 0.10036375 -0.13711582 0.40626818 0.25063932 -0.107353196 -0.06702699 -0.054342866 -0.096479505 0.08699006 0.0040450576 -0.26991597 -0.23582248 -0.12539534 0.27843723 -0.18263508 -0.019117171 -0.17212296 -0.17853402
593 0.16168286 -0.2726317 0.40759003 -0.012997129 0.1251982 -0.42243087 -0.024276758 0.26645055 0.085244894 0.25657445 -0.011550824 0.18232238 -0.01617936 -0.20656903 -0.3016618 0.090673104 -0.39814365 0.1512279 -0.33068216 0.28365228 0.28665024 0.291753 0.16958976 -0.122870155 -0.07634115 0.044694804 -0.2170422 0.2034504 0.044803802 -0.12926319 -0.048550166 0.06557034 -0.25154126 -0.022069644 0.35012513 0.10730504 0.03989994 -0.101884514 0.14403649 0.15090391 -0.057798743 0.27201593 -0.08897487 -0.20129862 0.09235695 0.057761267 -0.1590458 -0.031703085 -0.1870583 -0.045974627 0.029969893 -0.086114 -0.09588444 0.34238887 0.22964229 0.05215247 0.1291991 -0.22889037 -0.03600666 0.29581156 0.12227951 -0.025390964 0.01576735 0.17442112 0.22043318 0.018555496 0.03758961 -0.10016056 0.1115417 0.11719776 -0.017284736 -0.3234185 -0.4879937 -0.13350913 -0.020605057 -0.23550501 0.17268077 0.14068581 -0.35499102 0.12570871 0.1288999 0.09252992 0.14208558 -0.2372607 0.36067685 0.3909764 0.01791817 -0.33570945 -0.28986618 0.47462863 -0.041991204 -0.051542584 -0.11815698 -0.19735561 0.377062 0.013218255 -0.015486761 -0.61396986 0.015316068 0.40442547 -0.107861474 0.016298767 -0.29154092 0.18276085 0.32043427 0.102599196 -0.2358979 0.14299937 -0.09659066 -0.05889501 -0.0480388 -0.4042777 0.33834255 0.40320516 0.123284236 0.00777801 -0.09139959 0.106716394 0.13205157 0.10975882 -0.14240964 -0.30715412 0.014006672 0.27022457 0.014840984 0.12773766 -0.054351944 -0.14488403
530 0.082018584 0.093246095 0.076674715 0.25575155 0.2887186 0.12327314 0.23431799 -0.15894562 0.24387068 0.008762003 0.09218258 -0.08177522 0.09337226 -0.094229214 0.51134944 0.2762833 0.009045627 0.04567164 -0.46999237 0.32860023 0.16403839 0.15690653 -0.5845865 -0.6453729 -0.26264945 0.20761406 -0.18671614 0.028199797 0.14713103 -0.2717304 -0.15269016 0.23828222 0.034772504 -0.025772728 -0.14607331 0.37868157 0.029808281 -0.00018747317 -0.11465286 0.14444467 0.26298803 0.18475918 -0.054075092 0.21032056 0.23508096 -0.114548616 -0.2498447 -0.281693 0.05286638 -0.2752492 0.3535517 0.26973706 0.24588586 0.09994859 -0.56950897 0.053571288 0.46765625 0.13085493 -0.17637135 0.0030993684 -0.3531415 0.06999863 0.011271903 -0.07570654 0.14774597 -0.1604617 -0.08675344 -0.08437709 -0.24070932 -0.5082615 0.010331638 -0.0852224 -0.38618168 -0.14260603 0.44270256 0.039012432 -0.030461838 -0.21073003 -0.48828682 0.041940097 -0.13832033 -0.465615 0.081413046 0.3897402 0.05679706 0.07714175 -0.07403853 -0.124911845 0.16597906 -0.19866562 -0.2671744 -0.10109423 0.24514702 0.07433805 0.06471126 -0.0928321 -0.16750835 -0.16723451 -0.09000791 -0.022386776 -0.3445658 -0.09485296 -0.16451833 -0.06606679 -0.025188511 0.27284834 -0.022040347 0.39023218 0.37265944 0.15773991 0.09531895 -0.28184992 0.23805968 0.008451185 -0.031531133 -0.0065464834 0.24910472 0.17589484 0.44695258 -0.016432492 0.10129697 -0.08334325 -0.11846029 -0.14743394 0.026484998 -0.17571814 0.011633183 0.07067844
326 -0.011815244 0.17319825 -0.17288777 0.13059177 0.202475 -0.054286513 0.3036601 -0.28822437 0.19049479 0.0382665 0.102509834 -0.030872356 0.13209778 -0.051968746 0.3502158 0.2383314 0.058912084 -0.04890082 -0.5473462 0.50738126 0.12816685 0.10191329 -0.16271284 -0.5748119 -0.32700446 -0.0019156099 -0.13107078 0.0435677 0.050746474 -0.16820897 -0.18904886 0.070372745 -0.039928444 -0.018852279 -0.08908964 0.49190217 0.16939932 0.2089735 -0.13776071 0.20971791 0.09598481 0.23788652 0.052251145 0.121344104 0.109902844 -0.17880784 -0.23179509 -0.23005131 0.036817163 -0.2629489 0.20055625 0.27755755 0.20910867 -0.06854897 -0.5264169 -0.018789645 0.3530799 0.18687631 -0.09429446 0.019194858 -0.17954674 0.20609601 0.30274618 0.03568163 0.068887636 -0.05352662 0.11245486 -0.10131573 -0.07696522 -0.37235305 -0.04298088 0.033425946 -0.3783642 -0.097069 0.3249905 -0.117594846 -0.039172057 -0.22300422 -0.338737 -0.15562096 0.022884997 -0.35399222 0.115230545 0.36364028 0.19126485 0.22818959 -0.23995681 -0.38396317 0.12960093 -0.27077225 -0.46824947 0.08187449 0.34077322 -0.015341802 0.0445533 0.07864595 -0.03988678 -0.22261962 -0.068044215 -0.19201316 -0.4566818 -0.15138192 -0.050959617 -0.09951309 0.108596005 0.117551096 -0.28263265 0.3109649 0.39859787 0.1536561 -0.09567406 -0.29950583 0.13173367 -0.06699259 0.06151798 -0.16543296 0.19057898 -0.1401296 0.27546188 -0.010904266 0.08901335 -0.051549938 -0.27336773 -0.19675383 -0.09912141 -0.40126076 -0.23783928 -0.032565255
247 -0.09812027 0.013504171 -0.29391208 0.19533578 0.11644339 0.13908197 0.23973419 -0.2883166 0.2315845 0.060528554 0.023243586 -0.045749452 0.024888184 -0.14953953 0.32756308 0.20363232 0.014814277 0.1956015 -0.62223417 0.2832043 0.14390238 0.2557644 -0.35463342 -0.46677575 -0.29761147 0.32741338 -0.09111937 -0.18183598 0.13719346 -0.2217773 -0.3890888 0.38879886 -0.045408316 -0.10642751 -0.09896179 0.33916774 -0.03320212 0.30182192 -0.07262058 0.18270423 0.15195455 -0.052024465 -0.10755312 0.13062206 0.07727885 -0.08650933 -0.40979138 -0.055137705 0.105892256 -0.41674933 0.25176808 0.3208339 -0.11831635 -0.075788334 -0.4205261 0.053587493 0.3637996 0.15331374 -0.3248685 0.17374037 -0.3013469 0.09723747 0.28792512 -0.08117302 -0.019287854 -0.33991382 0.30623284 -0.22138767 -0.14422166 -0.5565824 0.12756287 -0.0646578 -0.09629379 -0.091625445 0.07919668 -0.079085566 -0.16517614 -0.351773 -0.36300218 -0.030354608 -0.108985566 -0.34995085 0.13815978 0.4531636 0.10829586 0.29235458 -0.17212966 -0.49150255 0.07137889 -0.26709926 -0.43665376 -0.040127523 0.2897666 0.070561506 0.13823041 0.03989083 -0.055132385 -0.0678131 -0.20692274 0.015560049 -0.41413537 -0.19355783 -0.19371086 0.069366045 0.11557976 0.07210505 -0.05190554 0.20451978 0.13435727 0.16890913 -0.04613739 -0.68179685 0.08344079 -0.08098487 -0.0098890625 0.04805624 0.17131662 0.1665136 0.2935146 0.040122233 -0.09605453 -0.16508506 -0.26687947 -0.18711738 2.2264556e-05 -0.32184032 -0.05493557 0.103971265
597 0.2366922 -0.41168594 0.26866317 -0.052163117 0.16186143 -0.24188565 0.16300789 -0.10983289 0.09642082 0.19337112 0.14536186 0.23111199 -0.12566331 -0.31247872 -0.10262113 0.10289493 -0.42770502 0.2305411 -0.21720289 0.20364098 0.16794083 0.33725435 -0.042788003 -0.35533848 -0.16403435 0.16722858 -0.09586079 0.21111156 0.07216051 -0.118346006 -0.09827054 0.0646581 -0.26589182 -0.05130203 0.28184915 0.27923062 -0.012136468 -0.0063201156 0.21018746 0.10231778 -0.055601258 0.3663161 0.05243243 -0.32143196 0.26358142 -0.066987604 -0.01992399 -0.16211726 -0.03774623 0.025389528 -0.039628882 -0.054133803 -0.27334872 0.38942593 0.60092026 -0.09144352 0.13192648 -0.20460378 -0.19126026 -0.10846539 -0.025046656 0.06766763 -0.21318883 0.0789841 0.30292574 0.0031945459 -0.021702785 -0.28019217 -0.018193113 0.1296837 0.16051568 -0.22395591 -0.26996654 -0.16806985 -0.16041847 -0.14149353 0.083886646 0.16928653 -0.098565795 0.22892314 0.028727474 0.10561086 -0.08274538 -0.19183621 0.18443418 0.34699398 -0.12779975 -0.34669518 -0.17197861 0.51967126 -0.13771705 -0.17821153 0.048474148 -0.22436619 0.29076675 -0.12978072 0.03062284 -0.6689377 -0.1712018 0.31988788 -0.20349902 -0.059246246 -0.33240137 0.16805129 0.027652701 0.18778169 -0.19703977 -0.0020605458 -0.12745418 -0.21942703 -0.07772878 -0.16629699 0.34533376 0.32507882 0.09120438 -0.09057133 0.00075305096 -0.04033946 -0.05958262 0.046882614 -0.13651413 -0.09266262 -0.170614 0.35255325 -0.05001657 0.15642872 -0.036084767 -0.12806423
746 -0.104941055 -0.22350454 0.32959303 -0.08562766 0.058886454 -0.079192944 0.17391728 -0.029666366 0.15288356 0.12378036 0.10632421 0.4389114 -0.097449005 -0.415568 -0.20732637 0.0015059859 -0.42743754 0.261251 -0.26833805 0.10159722 0.18610659 0.15489398 -0.1790126 -0.35181862 -0.21731508 0.18496199 -0.16937956 0.31888732 0.09901634 -0.27796814 -0.20033015 0.017637987 -0.44050863 -0.1500744 0.41019118 0.16660343 0.077202685 -0.11041339 0.32278684 0.22592776 -0.014822221 0.3140438 -0.03689341 -0.21235342 0.23323086 0.045094218 0.021586398 -0.030803522 0.048789527 0.091901936 0.16031499 -0.119379155 0.007974431 0.4184226 0.47658616 -0.002942543 -0.18146591 -0.406392 -0.2620945 0.18846108 -0.01880632 0.046963375 -0.18259732 0.11737521 0.24059747 0.102635995 0.09772441 -0.29818088 -0.097128995 0.032104813 0.19087332 -0.18105488 -0.41041517 -0.22975495 -0.04783331 -0.19989598 0.034752537 -0.037015554 -0.23315482 0.1347395 -0.023862356 0.08487528 0.22136006 -0.05326975 0.15538047 0.3253082 -0.03234707 -0.210343 -0.12086375 0.49796692 0.0020793658 -0.0059679006 -0.055404156 -0.23836309 0.4291211 0.07084512 0.08575943 -0.47853047 -0.3413972 0.28610182 -0.10268639 0.10374721 -0.30491745 0.25808647 0.043359555 0.17276376 -0.15051395 0.02412513 -0.1349585 -0.2082254 -0.01402606 -0.1410303 0.4082205 0.10487954 0.13817617 -0.020793261 -0.20906875 -0.026996639 0.1121196 -0.10041531 -0.072946094 -0.17727292 -0.11132345 0.28646544 0.0016184786 -0.079209425 -0.016176635 -0.26245347
462 -0.3361906 -0.06389094 -0.12206499 0.24948677 0.16883813 0.2030195 0.2187992 -0.38317752 0.18206577 0.33827785 -0.042156503 -0.21776776 0.11752215 -0.064764924 0.31750572 0.23855348 -0.168839 0.07899995 -0.3895115 0.27557877 0.044891555 0.09253194 -0.40943193 -0.30408594 -0.27512363 0.018209433 -0.16023043 -0.027661879 -0.14215411 0.064786546 0.013556341 0.37180424 0.5559156 0.024005892 -0.028473672 0.14026895 0.20604703 0.064553425 -0.12369628 0.38195372 0.08937987 0.18179624 -0.17608841 0.07177553 0.3569712 -0.09558324 0.030855466 -0.3235342 -0.052215107 -0.1897128 0.1614378 0.27017093 0.075272 0.13462026 -0.15471096 0.143789 0.3081304 -0.13786577 -0.16567282 0.04657215 -0.18329792 0.042374283 0.2890835 0.1302345 -0.020759124 -0.14130825 -0.32850382 -0.11821976 -0.22760904 -0.6231721 -0.075673364 -0.20077541 -0.15526654 -0.11969944 0.21091165 0.2911295 -0.17338651 -0.2708824 -0.59096867 -0.02664092 -0.067090325 -0.25142696 0.18851078 0.27944157 -0.12089094 0.38555223 -0.1702411 -0.43187988 -0.17253853 -0.22393256 -0.24082313 -0.08742425 0.06944509 -0.32103467 0.094319396 0.09711987 0.023621157 -0.18713607 0.32115144 -0.26179796 -0.47217646 0.007715195 -0.17836276 -0.09577401 -0.041913513 0.4897788 -0.10460706 0.31089282 0.25981 0.20028229 0.029134724 -0.5812331 0.18602872 0.18153712 0.08234092 -0.32540876 0.13194722 -0.28275314 0.107984886 0.2761411 -0.14983964 -0.17392662 -0.14225757 -0.012194158 0.11396748 -0.39356 -0.025425201 -0.24104375
758 0.1749462 0.17747357 -0.09523973 0.07389897 0.26818 0.06885121 0.23542045 -0.24751972 0.12156039 -0.006377849 0.066848636 -0.10214729 -0.04925343 0.01697069 0.5506576 0.05581044 -0.100114144 -0.17812893 -0.49892133 0.48297364 0.15783413 0.0475777 -0.38897339 -0.5469503 -0.40280458 0.1688941 -0.1342079 -0.043134354 0.3271259 -0.16318889 -0.17451584 0.25832534 0.043647606 -0.11336739 -0.13048467 0.4049106 0.10575038 0.08753887 -0.20043056 0.40613937 0.019050695 0.28062114 -0.2228298 0.29813084 0.1768961 -0.19582978 -0.32542288 -0.08784502 0.12662409 -0.2027895 0.18720154 0.3037852 0.17970258 -0.13169225 -0.5421775 0.12964453 0.3995253 0.23299338 -0.2018059 0.07543446 -0.24942607 0.25621283 0.25281513 -0.07127608 0.14096102 -0.23452652 -0.0020878126 -0.39988124 -0.054079216 -0.1914343 -0.06831013 -0.0878852 -0.2429995 -0.034669727 0.2556887 0.010253466 0.04780122 -0.30006316 -0.48643348 -0.053013474 0.043527268 -0.26630118 0.087369435 0.41275984 0.26252782 0.16911829 -0.1597721 -0.333911 0.18585172 -0.108945504 -0.33067912 -0.08625867 0.13242732 -0.06339231 0.10043269 0.17801367 -0.022714596 -0.23056455 -0.08856845 -0.18647332 -0.45037588 -0.04067229 -0.077804096 -0.056553382 0.07211436 0.24620156 0.059690464 0.37130287 0.19192193 0.1408842 0.11528935 -0.2791903 0.15662152 -0.19713737 0.022252923 0.13625638 0.18446526 0.1667191 0.21386066 -0.004944171 -0.12416301 -0.22839193 -0.17112179 -0.22967404 -0.061946325 -0.4078047 -0.02081943 -0.07649992
765 -0.27931982 0.037382435 -0.09810179 0.221579 0.22787881 0.18379058 0.23894723 -0.56525433 0.15302536 0.12557249 -0.083173364 -0.29232305 0.20278257 -0.13587482 0.3430811 0.15497313 -0.32083994 0.04789202 -0.25603098 0.3613194 0.058628086 0.09920265 -0.42535964 -0.31136873 -0.29460543 -0.11969552 0.013068474 0.054153327 -0.13899808 -0.009288307 -0.19021963 0.23225302 0.41806567 0.08245915 0.021911113 0.17589521 0.045415986 0.20904717 -0.011529708 0.3819809 0.11498381 0.25672048 -0.1940201 0.023337068 0.36854738 0.0033803494 0.100470245 -0.33813202 -0.05923562 -0.19643857 0.30985028 0.25816622 -0.054316 0.025136024 -0.12871504 0.2200508 0.3125157 -0.12865803 -0.13436145 -0.07416891 -0.23553845 -0.16239929 0.17851363 0.06271351 -0.0034425794 -0.2781977 -0.34869918 -0.09429427 -0.26901048 -0.53086436 -0.08073747 -0.3616294 -0.30405053 -0.082937986 0.45876768 0.2973537 -0.20309722 -0.20300949 -0.58877254 -0.009739595 -0.13373493 -0.17384288 0.20455822 0.40031376 0.08745145 0.46838123 -0.10129906 -0.3114818 0.22803545 -0.07711636 -0.13550852 0.030771926 -0.008830605 -0.07006963 -0.039016865 0.11174284 -0.014198239 -0.21470682 0.19853336 -0.2750358 -0.5024512 -0.041052524 -0.22675076 -0.1805123 -0.11791204 0.5264433 0.04813792 0.13358535 0.28747386 -0.09801261 -0.039734483 -0.4844312 0.0685512 0.037869554 0.12894848 -0.23664576 0.05491746 -0.120525844 0.19027446 0.25260368 -0.16211228 -0.15584567 -0.23549177 -0.004656485 -0.055320837 -0.2367769 0.10570228 -0.092984006
737 -0.027593575 0.1847433 -0.054967944 0.13914923 0.20676897 0.10798637 0.35227126 -0.35693088 0.098345764 -0.0016620768 -0.022067958 -0.20188265 0.063645974 -0.07262466 0.5350819 0.052341715 0.020491824 -0.06331006 -0.38297978 0.31635132 0.13914001 0.09326308 -0.26815063 -0.63777435 -0.3967256 0.21848635 -0.16765712 -0.062569715 0.16029353 -0.25122324 -0.026660781 0.34332374 0.05618195 0.06292251 -0.20229901 0.37858093 0.19604069 -0.010156616 -0.20642619 0.3458034 0.12341619 0.15989256 -0.04240636 0.0920991 0.13433523 -0.35387272 -0.35916388 -0.39532456 0.09609885 -0.18542072 0.25040132 0.15997978 0.12102418 -0.079574 -0.5019032 0.11194348 0.4348716 0.22230713 -0.16518863 -0.02335317 -0.34078175 0.09887858 0.1954036 -0.13798179 0.10959425 -0.3011039 0.14566928 -0.333837 -0.08314943 -0.4746161 0.082531735 -0.21163923 -0.31448078 -0.20341457 0.28576115 -0.08865958 0.048690014 -0.20148942 -0.4598095 -0.061660197 -0.05960675 -0.34728447 -0.04230699 0.22010247 0.1706587 0.14572683 -0.21145941 -0.32641315 0.11174248 -0.085070305 -0.3938841 -0.10249596 0.30070063 -0.06620799 0.021743735 0.09413033 -0.0001589027 -0.2001575 0.02788947 -0.2010389 -0.26458967 -0.12532339 -0.11388786 -0.038108792 -0.015450728 0.24992973 -0.16827902 0.3691713 0.29733944 0.1619892 -0.19479562 -0.47344482 0.10723131 0.040975064 -0.21611944 0.16268545 0.042966414 0.1452727 0.39940515 0.025022246 0.0078116804 -0.15179032 -0.069222376 -0.21430854 -0.19832185 -0.2049446 -0.17756338 -0.070365116
276 -0.0018658447 0.11203332 -0.16608717 0.25924426 0.26739877 -0.0035614795 0.25611752 -0.38453135 0.11556663 0.02904614 -0.031395346 -0.21793048 0.0080157025 -0.08230889 0.41043994 0.158894 -0.10822543 -0.040028296 -0.6226845 0.27241474 0.2726435 0.21599694 -0.39504808 -0.5354384 -0.24862325 0.33328173 0.04258303 -0.08398868 0.23014098 -0.21600057 -0.08365868 0.08267176 -0.033263158 -0.025239812 -0.2070484 0.3643357 0.017935196 0.21990971 0.043655407 0.17251997 -0.055680122 0.206828 -0.06335418 0.03362639 0.18186331 -0.35865137 -0.24973373 -0.11017158 0.051525734 -0.2811816 0.2522405 0.26023284 0.08491319 -0.062400676 -0.49271744 0.08428254 0.45367402 0.15664557 -0.16505872 -0.06729895 -0.18526998 -0.015468886 0.21415068 -0.002207176 0.066556685 -0.25679162 -0.05912976 -0.20943937 -0.32067654 -0.58122 -0.0002590921 -0.064378336 -0.32463342 -0.15354759 0.2728401 0.001482748 -0.09487234 -0.29922768 -0.42262 0.06705377 -0.090195216 -0.31848156 0.20566876 0.41869876 0.042311903 0.1949181 -0.18303677 -0.37117296 0.21759848 -0.11141062 -0.26127216 -0.1259439 0.19014826 0.07095645 0.17889465 0.1461484 -0.040592045 -0.10039297 0.049025588 -0.088496275 -0.27123857 -0.14580078 -0.18496211 -0.049736544 0.21068393 0.14814162 -0.08282253 0.19507433 0.39363933 0.19476898 -0.19263288 -0.5083923 0.17382464 -0.01272858 -0.0073930803 0.025089841 0.19892734 0.07682286 0.45834875 0.07444089 0.0081075905 0.009234108 -0.07160126 -0.21619463 -0.11746066 -0.16723005 0.14083172 -0.15223342
976 0.088623025 0.08883613 -0.11662907 0.12796843 0.20848414 0.07082409 0.28859597 -0.34624827 0.12678234 0.20876615 0.010944241 -0.23180638 0.04625571 -0.20027447 0.3367208 0.20716652 -0.076228306 -0.068486944 -0.621975 0.39597282 0.18738054 0.02026377 -0.4016964 -0.6252295 -0.35850793 0.19394332 -0.13458997 0.0005658871 0.21147184 -0.22469983 -0.27848092 0.2236516 0.04723085 -0.0044766855 -0.11304336 0.2750548 0.08690414 0.2540771 0.009902619 0.21698329 0.13875523 0.18875715 -0.0034746919 0.12874883 0.22104593 -0.12997732 -0.2809388 -0.19644475 0.15839852 -0.179588 0.12811403 0.32209298 0.014889977 -0.060941845 -0.61854625 0.026410963 0.2947916 0.22497244 -0.20177843 0.17681088 -0.24224985 0.09363084 0.3038894 -0.16076134 0.24892418 -0.12314618 -0.079728544 -0.12203832 -0.18499117 -0.5012824 0.020486902 -0.21641307 -0.30332023 -0.20016481 0.3541382 -0.12101359 -0.0446251 -0.27365762 -0.35883576 -0.1400658 -0.18019766 -0.24940874 0.23862371 0.34689263 0.03632573 0.033609062 -0.108187005 -0.27736732 0.3391644 -0.2685807 -0.37143096 -0.12703872 0.2606797 0.01794541 0.07812959 0.22063513 -0.18973865 -0.21242265 -0.028343407 -0.012858044 -0.42996347 -0.18793255 -0.056997556 -0.06868026 0.07651682 0.19121258 -0.13441506 0.30405727 0.38225648 0.19473511 -0.07057377 -0.4959624 0.20222384 -0.019035975 0.050748102 0.05613766 0.25155067 0.09948485 0.17815283 -0.10768818 0.0007585684 0.0020565938 -0.18736032 -0.17747886 -0.11255187 -0.3296117 -0.0503334 0.082126506
711 0.13330723 0.16129296 0.09353372 0.09452569 0.10850222 0.22718011 0.28017962 -0.26496717 0.18577373 0.07271382 -0.036333743 -0.14954694 0.02535287 -0.17016631 0.44006777 0.13908863 0.008433607 -0.05927417 -0.42493686 0.3791192 0.21644883 0.13262631 -0.29276368 -0.49333155 -0.45512518 0.2254172 0.04723939 -0.10095376 0.12545313 -0.12545481 -0.1245169 0.29887643 0.14946593 -0.012134301 -0.114833154 0.33633327 0.1674602 0.09661423 -0.13148348 0.18711567 0.19845657 0.10881852 0.0071370406 0.2020397 0.032673553 -0.08276379 -0.28808153 -0.24376158 0.003530608 -0.15534903 0.51105523 0.24200363 0.018945783 -0.03925223 -0.6488327 0.21419343 0.5226061 0.27941585 -0.21873513 0.091371365 -0.35770762 0.1820902 0.31726187 -0.0016737256 0.104743876 -0.23553899 0.027604464 -0.29262996 0.003946824 -0.56744725 0.06230939 0.017511016 -0.27496937 -0.2476818 0.40897557 -0.12400452 0.15270554 -0.19515386 -0.3413685 0.07722914 -0.026847389 -0.3827894 0.068511255 0.2296363 0.053964227 0.2885624 -0.2301558 -0.22947703 0.061442 -0.12090649 -0.49370712 -0.11667414 0.19343787 -0.086174846 -0.008433238 0.0035902765 0.09300564 -0.24182889 -0.02995742 -0.069847934 -0.52319586 0.0019595914 -0.063816294 0.13278851 -0.09747315 0.33401158 -0.17794055 0.37212735 0.27647802 0.0672555 -0.065145805 -0.44199452 0.19044901 0.023772465 -0.24400158 0.10538752 0.15827511 0.19371521 0.4793103 0.0678544 0.22342134 -0.12221352 -0.06601541 -0.12441029 -0.11187904 -0.19000271 -0.21797483 -0.067412786
936 0.13941522 -0.23531936 0.13172817 0.060654923 0.15417963 -0.22491427 0.07324035 0.11232288 0.27556166 -0.034603264 0.05037831 0.40882602 -0.03882015 -0.06586347 -0.0208419 0.11877066 -0.29328802 0.054685347 -0.22237957 -0.008954492 0.10397317 0.2060788 -0.022473304 -0.29252246 -0.03685852 0.027232148 -0.23182467 0.17626931 0.09106653 -0.22293408 0.27136174 -0.08285408 -0.15899843 -0.0007923008 0.18649879 0.011187463 -0.03927872 -0.12990709 -0.19548921 -0.08790601 -0.11531022 0.12554665 -0.17102306 -0.21897478 0.1685975 0.020330006 -0.094650395 0.051638294 -0.3339421 0.15896437 0.23440811 -0.09972043 -0.10350509 0.4033369 0.04513949 -0.2127513 0.4422198 -0.332699 -0.25680968 -0.074228205 -0.15935111 0.07901094 -0.028481644 -0.004997406 0.0038617002 -0.026380321 0.08691826 0.034738638 -0.20337102 0.13410841 0.016266402 -0.59680444 -0.6313665 -0.11446566 -0.022784598 -0.39185494 -0.04970736 -0.15308747 -0.010279269 -0.12471836 0.25285575 0.17396328 -0.15656021 0.011376046 0.44537312 0.35942087 -0.018921992 -0.67286 -0.037911437 0.29394206 -0.09308329 0.2507058 0.3424884 -0.38144892 0.010531716 0.21008871 -0.06785509 -0.5919293 -0.010948788 0.29235688 -0.16916521 0.09115546 -0.2093768 0.06605849 0.10860257 -0.118941575 0.03581426 0.13543397 -0.07496384 -0.5485023 0.09489581 0.003902703 0.27342665 0.07786544 -0.0028909813 0.12618631 0.073186904 -0.10305943 -0.11264744 0.16166948 0.00790712 -0.18594076 -0.054361235 0.47590023 -0.3015634 -0.23177552 -0.150386 -0.20364037
369 -0.030455276 -0.45301068 0.3327633 0.030395089 0.37273556 -0.12738839 0.060526714 0.21113646 0.14258091 0.25366822 0.1570442 0.19511777 -0.01797394 -0.14434747 -0.08885309 0.24571276 -0.3337767 -0.023123974 -0.19806528 0.11357301 0.13399202 0.39978054 -0.10484401 -0.25204784 -0.117512256 -0.015261778 -0.20709287 0.21453212 0.006249723 -0.24832243 0.13380636 0.13489608 -0.17984502 -0.08162249 0.0723148 0.0726138 0.29542387 -0.19171983 0.31762365 -0.12199594 0.112312615 0.36722732 -0.050511118 -0.112909704 0.054449923 0.059677273 0.079347 0.055221718 0.16883251 -0.1458828 0.31284392 -0.040189087 -0.18418175 0.5084193 0.4859315 -0.2681461 0.12109551 -0.21905133 -0.027804656 0.30557913 0.087061316 0.07010278 -0.022609828 0.10842296 0.23045033 -0.0017203955 -0.23523378 -0.16571598 -0.01640386 -0.068341285 -0.042400133 -0.55728626 -0.31618476 -0.23838149 0.082690105 -0.47723857 -0.048752535 0.013203489 -0.09864258 0.15271915 -0.056707595 0.007882054 0.03125827 -0.08529315 0.08174111 0.29011953 0.14358366 -0.20143771 0.017620513 0.47288632 0.04729186 0.047750983 -0.07952045 -0.14669554 0.2524429 0.050802488 -0.086561285 -0.69358873 0.039336782 0.17595011 -0.16113096 0.010395939 -0.28873 0.3516392 0.12966746 -0.08499543 -0.15711364 0.24246556 -0.060038067 -0.43489194 -0.08686436 -0.06259584 0.4148 -0.08045647 0.03829178 -0.09351804 -0.05334618 0.18957971 0.08280637 -0.03836454 -0.12950829 -0.33959642 -0.12021365 0.30687338 -0.033049673 0.13613275 -0.22094584 -0.16612208
73 -0.1985331 -0.11968618 -0.038587388 0.2213674 0.3081894 0.061144367 0.28506538 -0.3345699 0.15929922 0.1056015 -0.14341077 -0.19135208 0.19484219 -0.20839125 0.24097316 0.023233479 -0.18521503 0.045777336 -0.25850257 0.41106606 0.069761716 0.23775452 -0.47737777 -0.35681796 -0.35633492 -0.13880655 -0.07261984 -0.037865244 -0.093737036 -0.10085781 0.086384915 0.46404213 0.515834 0.130317 0.08804176 0.17277007 0.022246223 0.03840438 -0.1126479 0.46575037 0.07025339 0.36340043 -0.10396183 0.2681491 0.26764095 -0.10774413 0.17837912 -0.368797 -0.039990336 -0.25820553 0.22985688 0.2533187 0.0061410326 0.006669702 -0.13622837 0.21783787 0.35535747 -0.041424677 -0.16455533 -0.03062283 -0.18913253 0.041350134 0.5522663 0.07084185 0.029035585 -0.08442169 -0.14687744 -0.04406486 -0.20340803 -0.67951477 -0.0785493 -0.15357287 -0.14450869 -0.068276346 0.22655466 0.22134422 -0.27556875 -0.22528715 -0.48166767 0.041888446 -0.06628855 -0.37664902 -0.04892638 0.45057926 -0.069741085 0.25103122 -0.011177025 -0.42569533 0.18976586 -0.19171864 -0.29851058 0.06183208 0.1128576 -0.101532966 0.16243097 0.06104136 -0.12734292 -0.22943743 0.15430553 0.026948577 -0.47467858 0.027638067 -0.28654373 -0.20125668 -0.054562055 0.51316786 0.0852463 0.49702644 0.20996425 0.02182602 0.028918631 -0.49454492 0.06939617 0.15412258 -0.112864755 -0.2771554 0.1886378 -0.10767589 0.15271768 0.117352866 -0.14467329 -0.20906961 -0.030407112 0.024543988 0.08085753 -0.28132153 -0.07281718 -0.1054741
816 -0.3284481 0.070012465 -0.22877635 0.36711445 0.21648546 0.2015594 0.17301366 -0.3978638 0.23603325 0.034403622 -0.14396363 -0.22939312 0.07129048 -0.13099673 0.16959225 0.08274726 -0.25611722 -0.011918645 -0.44490632 0.53201824 -0.085407354 0.10512627 -0.50852793 -0.40679026 -0.34422657 -0.064989164 0.034903806 -0.12959759 -0.087523915 -0.022389086 0.032585695 0.37217593 0.46765825 0.09524529 0.0024497858 0.08340583 0.10660331 0.11477409 -0.059133764 0.40083346 0.13306653 0.45051026 -0.22541216 0.23099081 0.21993269 -0.09213088 0.053669892 -0.41509062 0.038378954 0.07194538 0.2634794 0.4590379 0.06359052 0.14070301 -0.02315794 0.034221355 0.31958407 -0.2071223 0.014659284 -0.053073976 -0.2784077 0.0077131595 0.16492523 0.17239276 0.09998984 -0.11738049 -0.19344316 -0.0909713 -0.29596364 -0.609847 0.025791002 -0.27409407 -0.23541838 -0.044611827 0.3312648 0.09512145 -0.2902819 -0.113971725 -0.75102997 -0.06671619 -0.031070454 -0.2187769 0.04259007 0.20348915 -0.106195554 0.2633977 -0.12855536 -0.39766023 0.24698979 -0.06386698 -0.058756705 -0.13920861 -0.1454079 -0.11478992 0.18176094 0.1646139 -0.2569686 -0.10352073 0.14654441 -0.114590585 -0.37820843 -0.061938528 -0.33376467 -0.07426471 -0.16167746 0.4647025 -0.009371696 0.3024046 0.21059452 0.20606846 0.17843731 -0.48762548 0.02740306 0.22440493 0.024036417 -0.18646385 0.25782838 -0.0017084426 0.17869686 0.16793345 -0.12284683 -0.17153525 -0.1533803 0.0904983 0.2362727 -0.40609923 -0.029956786 -0.026057094
984 -0.39303312 0.0021892597 -0.19538072 0.27733096 0.084584706 0.021545662 0.097549535 -0.4555271 0.14592947 0.4353582 -0.17676938 -0.4209546 0.3315311 -0.12802702 0.24502261 0.25733742 -0.18307985 0.10565991 -0.43458205 0.28003544 0.014811085 0.20486453 -0.5142289 -0.2652862 -0.38237733 -0.06769 -0.07159388 -0.028575722 -0.07073559 0.10639534 0.01136341 0.28221375 0.5038257 -0.03081397 -0.04417932 0.21701433 0.057986874 0.022913797 0.048416633 0.41260582 0.17271483 0.25927484 -0.24648131 -0.074259356 0.3129205 -0.10377196 0.024036413 -0.29678592 -0.080375105 -0.23366058 0.1518927 0.39539674 0.029339164 0.04091449 -0.18841924 0.14183669 0.3017189 -0.14422263 -0.2893005 0.023417594 -0.34419942 -0.024742575 0.23474032 -0.016602643 -0.020093448 -0.18760332 -0.25126034 -0.014033437 -0.24407332 -0.32395557 -0.028616166 -0.2702383 -0.27685267 -0.14628643 0.21299733 0.21156572 -0.24725004 -0.18088603 -0.71306664 -0.04951963 -0.06687457 -0.3035062 0.20402712 0.31058618 -0.06154691 0.2013924 -0.11693811 -0.45066717 0.046876192 -0.1760488 -0.19593076 0.030950787 0.21569028 -0.025761595 0.11796033 0.13857314 -0.08826138 -0.2737029 0.3347901 -0.22202094 -0.47388038 0.049489435 -0.41082847 -0.07166556 -0.07966237 0.5757304 -0.05664222 0.2913867 0.16912323 0.08457292 -0.08957342 -0.533756 0.1715371 0.18814145 0.0822379 -0.08012801 0.02609601 -0.0639814 0.08544325 0.18498872 -0.020353185 -0.043162365 -0.087976545 -0.0074519212 0.10207312 -0.16801438 0.15982097 -0.23182306
474 0.151387 -0.29031438 0.06266018 0.0786198 0.41894642 -0.09078569 0.29480326 -0.10981412 0.18869068 0.2601097 0.16816014 0.43979612 0.112294465 -0.18267687 -0.10927124 0.095978096 -0.29486915 0.055203658 -0.0061285594 0.045032136 0.12577495 0.21288358 0.005438126 -0.32605508 -0.05506799 -0.14374517 -0.046980157 0.13880621 0.03537434 -0.09370949 0.3590856 -0.15218134 -0.083077505 0.07073163 0.2996062 0.17066315 0.07750905 -0.12194311 -0.04145559 0.047728106 -0.17019896 0.16919416 -0.096272394 -0.15589286 0.16938087 0.0695228 -0.051167484 0.09811501 -0.39308882 0.19583672 0.10198157 -0.12997551 -0.060985155 0.43008024 -0.09166866 -0.13681813 0.26107332 -0.40360224 -0.16351536 0.022647632 -0.09583892 -0.08946856 -0.31367892 -0.049772963 0.14375927 -0.12372796 -0.020269565 -0.079887964 -0.29994872 0.10432888 0.12971002 -0.32624117 -0.56623137 -0.12422931 -0.0324802 -0.298949 0.037365958 -0.24419081 -0.06661504 0.04520872 0.36521107 0.2349363 -0.007842546 0.046425555 0.30831504 0.42172015 0.003209385 -0.5052142 -0.14309576 0.35172945 0.04966238 0.2159354 0.2889281 -0.40908593 0.004859177 0.11546281 -0.010655077 -0.48191887 -0.2595948 0.29593903 -0.22142301 -0.14228474 -0.36262637 0.13292924 0.2421827 -0.17336793 0.031976156 0.06111779 0.09242664 -0.50977325 0.17682473 0.07982089 0.17604622 0.2516148 0.117726505 -0.10899061 0.022974256 -0.14311294 -0.07792364 0.057043687 0.13052522 -0.278635 0.057871245 0.43889803 -0.46945786 -0.24284546 -0.18093054 -0.11859101
541 -0.29718095 -0.24105106 -0.14897838 0.21629201 0.31448385 0.35740662 0.101872504 -0.48768362 0.2302127 0.33807856 -0.17936313 -0.14083004 0.13539742 -0.15189062 0.2206939 0.1659174 -0.3290791 0.118486516 -0.2620695 0.34030437 0.18045437 0.10395467 -0.59703135 -0.43000597 -0.17452307 0.05635516 -0.108403794 0.057315346 -0.1911664 -0.0973047 -0.042679157 0.31742886 0.48251712 0.17064157 -0.116077 0.125731 -0.08464336 0.10882835 -0.09208439 0.361962 0.19640242 0.26808482 -0.111933574 0.23766807 0.34261525 -0.010933811 0.164562 -0.1925023 -0.060419016 -0.39897516 0.3107585 0.3133754 0.01897194 0.0017359419 -0.24732135 0.06157025 0.17292427 -0.09355398 -0.12254904 0.1144109 -0.40015694 -0.060024794 0.4524561 0.1319434 0.08492279 -0.12435519 -0.23373258 -0.03501835 -0.16088155 -0.44229293 -0.04799207 -0.1970862 -0.33587813 -0.24255076 0.093255505 0.38077652 -0.051560156 -0.2696908 -0.7160585 -0.026084956 0.057482727 -0.19610561 0.11227078 0.37691078 0.10549763 0.40410975 -0.1336024 -0.48378596 0.04711886 -0.22241992 -0.2119911 -0.12465339 0.17160927 -0.0876601 0.07853738 0.026611757 -0.00020842436 -0.1259871 0.15804146 -0.016694596 -0.20223427 0.009531567 -0.33102185 -0.07341328 -0.035876367 0.42631218 0.04086502 0.3502325 0.29522642 0.14954145 0.030579997 -0.4916863 0.13236567 -0.14321008 -0.060331065 -0.08297928 0.24205634 -0.20149693 -0.039373264 0.09031302 -0.3381143 -0.20281108 -0.09353842 -0.21000963 0.32531264 -0.2740008 0.05904987 -0.03731462
901 0.23589286 -0.2959 0.17578527 0.0643844 0.40803275 -0.037332885 0.35405934 0.07461397 0.29384238 0.19459094 0.04420069 0.59835 -0.0072106547 -0.05713726 -0.21261373 0.17876898 -0.21022026 0.10500403 -0.14564666 0.12608887 0.091167085 0.33679536 0.039655194 -0.4259487 -0.029556815 -0.08060864 -0.210922 0.09688458 0.13569506 -0.19149603 0.13666517 -0.06128494 -0.31781316 0.042785507 0.269931 0.116901115 0.04798891 -0.25418228 -0.3911187 0.069613 -0.1346123 0.077019624 -0.06427156 -0.15092519 0.2636111 0.0989939 -0.11075946 0.19017084 -0.26000157 0.12267315 0.07329525 -0.032204233 -0.12704052 0.48880517 0.10443622 -0.009045678 0.27455002 -0.22086379 -0.10497053 0.066122554 -0.08017818 -0.1883274 -0.13584906 0.020342328 0.23096946 0.11602329 -0.2030158 0.04134022 -0.30799344 0.04180185 0.1030981 -0.31499687 -0.63599557 0.0075098015 -0.013994194 -0.24280041 -0.25706068 -0.052653346 0.0639346 -0.29012308 0.20419732 0.05791397 0.06409036 -0.0353852 0.47776744 0.43400007 0.022465348 -0.36037868 -0.122879915 0.23095827 -0.04759285 0.2281525 0.20447502 -0.17698276 0.27210975 0.13083926 0.107922785 -0.59910256 -0.15128994 0.27478993 -0.11959334 0.016433481 -0.1638214 0.25840658 0.2156522 -0.20811039 0.02376811 0.09867104 -0.055403877 -0.20585585 0.12791647 -0.054980457 0.23771097 0.16873387 0.09970393 0.28894317 -0.06530819 -0.120561 -0.06542461 0.089136 -0.17000328 -0.27800515 -0.0426075 0.55135065 -0.37162077 -0.2486073 -0.078388125 -0.22984213
481 0.15318672 -0.03689149 -0.041669857 0.115441576 0.23327263 -0.039348383 0.31791025 -0.3322968 0.20218672 -0.06588839 0.24589951 -0.22777207 0.049938772 -0.21982166 0.6716201 0.17472118 -0.23562898 -0.039627988 -0.518266 0.47691697 0.33888224 0.001760036 -0.37321934 -0.6036762 -0.3413188 0.3166976 -0.12647901 0.0072269845 0.22404653 -0.15700482 0.015873771 0.31626555 0.32747635 -0.043962646 -0.20591803 0.42513445 -0.038879357 0.31655538 -0.19594838 0.24952836 0.114919834 0.17740338 -0.1992295 0.23793772 0.15475002 0.05322405 -0.34213918 -0.18986803 0.102205195 -0.14463535 0.2251109 0.33302757 0.08932982 -0.17756407 -0.4913845 0.26444158 0.31853274 0.28924945 -0.0044675367 0.12593776 -0.23596364 0.24336918 0.24076611 -0.0006070891 0.11050096 -0.26294324 0.00868689 -0.38074535 -0.13631661 -0.47796014 -0.04973247 -0.052338514 -0.3155812 -0.09340549 0.21068944 -0.037986796 -0.046556707 -0.33570457 -0.3436817 -0.046698075 -0.09986009 -0.34024605 0.17899269 0.3349117 0.21326138 0.2603624 -0.15294598 -0.25814894 0.14973973 -0.08349389 -0.23623383 0.096373565 -0.071227975 0.25859952 0.06926276 0.11959416 -0.052704662 -0.22730866 -0.05296504 -0.036400124 -0.47968835 -0.014509778 -0.07316053 -0.074304044 0.10054099 0.048745647 -0.068241574 0.1515305 0.31183803 -0.122302055 0.23498379 -0.37193072 0.00074323476 -0.22509708 0.14128524 -0.041762754 0.03266286 0.06992294 0.31307966 0.0030051866 -0.08314263 -0.21208978 -0.16177228 -0.13007742 -0.05314604 -0.34324697 0.1507997 0.07331525
527 0.15078074 -0.108237036 0.14274597 0.1222524 0.15181337 -0.35695553 0.2060047 0.10868858 0.040912397 0.09528096 0.10665343 0.44594002 0.1128484 -0.07412993 -0.1290761 0.2113748 -0.4717799 0.1749871 0.007942136 -0.0812956 0.13019237 0.32918707 0.057682585 -0.45453978 -0.12281447 -0.06379861 -0.15523288 0.027490368 0.023378598 -0.20010707 0.35750416 -0.1316752 -0.107611775 0.16862534 0.41987914 0.16298647 -0.031278905 -0.17657489 -0.08274911 0.05668325 -0.06968758 0.1124658 0.004292095 0.04099238 0.07659869 -0.073673934 -0.25050178 -0.036894307 -0.38132963 0.11827032 0.17654578 -0.034115735 -0.15694858 0.3578796 -0.025106596 -0.24534927 0.40015024 -0.35258922 -0.16314833 -0.13755175 -0.17478026 -0.0031925957 -0.1706961 0.0889092 0.23088083 0.08194304 -0.040432975 0.09828982 -0.065336384 0.187668 0.091846414 -0.3443881 -0.585495 -0.13865092 0.055220805 -0.38080803 -0.09500202 -0.25501794 -0.07581556 -0.04743624 0.13838135 0.3062517 0.058640026 0.0439886 0.44219467 0.33128318 0.050993823 -0.5481567 -0.20471717 0.27105403 -0.043477733 0.18493536 0.29617122 -0.396361 0.25425154 0.27761242 0.077088974 -0.5553379 0.031175153 0.33741757 -0.21300218 0.15261342 -0.2769737 0.16571735 0.19519977 -0.23470053 -0.0073742247 0.15229532 0.23246825 -0.2543211 0.11385945 0.07546212 0.17857006 0.111816145 0.045748904 0.24010728 0.13693741 -0.11620865 -0.09083186 0.093471214 0.097776756 -0.07715746 -0.03023178 0.44587198 -0.38349336 -0.24479015 -0.22029072 -0.1910373
159 -0.21949099 -0.18319692 -0.1346585 0.22538804 0.24841341 0.18077913 0.23390079 -0.47166556 0.19480103 0.16577746 -0.106614105 -0.22363888 0.26520678 -0.10985476 0.24514863 0.13050616 -0.33518055 0.060724013 -0.21639897 0.30884656 0.14047143 0.24407095 -0.42371264 -0.34835893 -0.335016 -0.0031928134 -0.011081562 -0.14215581 0.05379193 -0.08901517 0.1429348 0.26261047 0.54252243 -0.05164745 0.046270765 0.18940502 0.15003341 0.14960007 -0.027805852 0.45972446 0.18258527 0.31524613 -0.14718248 0.1880977 0.35775796 -0.078829005 0.1821272 -0.42612204 -0.003496488 -0.15331988 0.123321034 0.2769544 0.057835158 -0.0045381878 -0.18789482 0.2984662 0.19849955 -0.2157447 -0.27097622 -0.048617527 -0.17134236 -0.011556067 0.38495573 0.10729959 0.03878917 -0.22194275 -0.19357511 -0.12303522 -0.24356082 -0.6380913 -0.059407573 -0.22197112 -0.24522643 -0.09833437 0.3206027 0.3382263 -0.23384236 -0.1658156 -0.45527455 -0.1171399 -0.07099659 -0.31289774 0.24962182 0.41502914 -0.009144269 0.37162748 -0.23640071 -0.295066 0.18167984 0.04211773 -0.23081294 0.07816649 -0.024532143 -0.20342602 0.05385644 -0.0076278546 -0.08392274 -0.08873427 0.0852715 -0.09837134 -0.4325281 0.07564374 -0.33020815 -0.13476692 0.032903984 0.5126247 0.038789805 0.42071387 0.39261252 0.076752976 -0.06640641 -0.42269406 0.08544235 0.07309233 -0.013063676 -0.15990868 0.06296189 -0.16316064 0.119298 0.023715442 -0.14689244 -0.08691968 -0.06966983 0.012012563 0.11066893 -0.24594332 0.030228665 -0.022170499
325 -0.15628241 -0.11600222 0.08566146 0.35462934 0.16953386 0.0029972873 0.119972326 -0.44657078 0.23079382 0.2938547 -0.1883214 -0.102194846 0.21618935 -0.21129619 0.19306979 0.20111762 -0.3523273 0.05266659 -0.3577422 0.42454687 0.11812656 0.17789873 -0.4391589 -0.3767422 -0.32519078 -0.16271533 -0.16292857 -0.039252333 -0.15394405 -0.03454862 0.03828864 0.43963888 0.48340696 0.20827648 0.12989742 0.21895097 0.09956001 0.16586925 -0.20293942 0.45544493 0.06586346 0.23967583 -0.09947431 0.26393005 0.28142914 0.06197764 0.2003077 -0.42250487 -0.09898545 -0.05066224 0.12874295 0.41563267 -0.100027554 -0.063092925 -0.22404936 0.15820387 0.33365774 -0.06950834 -0.24122287 -0.0046254164 -0.052629627 -0.027364355 0.48371226 0.13660719 0.10236682 -0.030617855 -0.20628414 -0.13006143 -0.1994478 -0.60635924 -0.059880666 -0.12891252 -0.2702505 -0.060788013 0.40626827 0.1991171 -0.21223173 -0.32533804 -0.46245572 0.042168908 -0.037774257 -0.2811729 0.21101886 0.37774315 0.07798045 0.29079336 -0.2512411 -0.49511474 0.107290015 -0.19260918 -0.13948111 -0.062800854 0.06892336 -0.06747952 0.13926531 -0.008780145 -0.093323596 -0.05486957 0.10841703 -0.09230428 -0.3873849 0.055545934 -0.18694003 -0.28348374 0.0076487684 0.5621163 0.01810891 0.37322405 0.24911368 -0.040719725 -0.17747015 -0.33604214 0.11000204 -0.05338042 0.038532827 -0.35797817 0.13700537 -0.12634882 0.1436753 0.06599347 -0.22950493 0.019130442 -0.10296767 0.07902785 0.065097414 -0.31029075 -0.04996137 -0.08264289
795 0.33118019 0.057950184 -0.16143672 0.10475117 0.29594234 0.06688986 0.14988117 -0.34236854 0.17152151 -0.006103027 0.18713811 -0.11923577 0.010542123 0.07884971 0.5860469 0.17082238 -0.252819 0.03383803 -0.64821094 0.22033317 0.14704743 0.33749264 -0.33538106 -0.49622706 -0.3906611 0.09035779 0.022520319 -0.12690903 0.27706563 -0.26319486 -0.15954311 0.10198034 0.27590483 -0.107641146 -0.13161232 0.37883094 -0.06769101 0.0776492 -0.12231814 0.07592937 0.114628896 0.15721801 -0.22791244 0.2749212 -0.0005915542 -0.024813792 -0.152183 -0.3827759 -0.0008651722 -0.3458621 0.2985674 0.36965942 -0.19367059 0.017591318 -0.4176516 0.063944355 0.54688007 0.2482759 -0.24059361 0.032657575 -0.35103044 0.2948961 0.4128548 -0.008931506 0.100969195 -0.18209234 0.27703232 -0.30314106 -0.12718762 -0.23855174 0.03208682 0.019780297 -0.3468616 -0.2172378 0.08238391 -0.07946565 -0.090034425 -0.2300442 -0.22608504 -0.20134714 -0.011419163 -0.47442043 -0.02665265 0.2501415 0.23846248 -0.013590763 -0.15917292 -0.21178225 0.12324176 -0.19659428 -0.2661223 0.17609383 0.02536344 -0.15313761 -0.044439517 0.17484102 -0.010610415 -0.20179695 -0.0023858298 -0.0894851 -0.46788946 -0.19050923 0.0010938344 -0.16118884 0.19302556 0.23937778 -0.1856889 0.23343444 0.2750685 0.17692447 0.0008572356 -0.4077656 0.2084633 -0.111597195 0.117303535 -0.07191252 0.014319318 0.09437291 0.24916437 0.13596107 0.14547667 -0.0997972 0.010124758 -0.30759883 -0.04243156 -0.17067488 -0.14180307 0.06548091
302 0.4145667 -0.5058088 0.14067698 -0.056165557 0.25924978 -0.14405787 0.32275143 -0.018547019 0.11353081 0.111894846 0.18080439 0.64114344 -0.07719759 -0.16462168 -0.18103023 0.23165424 -0.26066154 0.086617075 -0.070433535 0.17184047 0.22158343 0.1945388 -0.008626549 -0.53039855 -0.08868392 0.062662765 -0.17501773 0.06917601 0.120904855 -0.26190534 0.19268022 -0.19794491 -0.28337076 -0.09387277 0.20452699 0.18361841 -0.003011697 0.046640422 -0.18121085 -0.072350375 -0.16098095 0.1976135 -0.069496445 -0.21040265 0.31975746 0.02057152 -0.034766383 -0.040079612 -0.23639837 0.124583736 0.10896642 -0.104257345 -0.05290398 0.4109593 0.04991249 -0.04003375 0.36011294 -0.45831275 -0.23929633 0.05629452 0.046636697 -0.010518024 -0.05260277 -0.014187027 0.10492953 0.07975367 -0.07682934 0.009605055 -0.3534256 -0.019459544 0.12144034 -0.4144747 -0.45133325 0.11799222 0.0915564 -0.19849063 -0.22401543 -0.14015637 0.06284031 -0.1885722 0.16164798 0.10586117 0.07826398 0.035738505 0.3737114 0.3682338 0.09375176 -0.5713474 -0.18438393 0.34547395 0.10315412 0.26430035 0.20927581 -0.37103423 0.2246126 0.3227491 0.05647989 -0.26779273 -0.17780653 0.13134383 -0.058192186 -0.11511098 -0.20862386 0.21624002 0.17986147 -0.24298613 -0.037979808 0.08180458 0.21943252 -0.24828748 0.030398034 -0.019205436 0.2213945 0.06911345 -0.00885568 0.12924662 0.008072227 -0.12418739 -0.09806864 0.16084032 0.035579357 -0.110287875 -0.09859797 0.6072121 -0.4392898 -0.0768458 -0.010078978 -0.10224018
346 -0.22985198 -0.18359742 -0.23157173 0.26120955 0.24043915 0.2642119 0.15001594 -0.49669567 0.13255769 0.18662575 -0.28028184 -0.20428747 0.100669816 -0.2127831 0.20160352 0.1367624 -0.28263202 0.09678763 -0.2633918 0.37449867 0.09629852 0.08999471 -0.48926392 -0.45974782 -0.36821613 -0.06222573 -0.14893284 -0.1662204 -0.19207436 -0.090533346 0.037754975 0.48602602 0.5487684 0.08937943 0.13170008 0.18429019 0.09483948 0.1502716 -0.102790065 0.47135285 0.13485257 0.35327277 -0.048181117 0.15999216 0.3692828 0.026623376 0.13173708 -0.41462484 -0.02896727 -0.08581365 0.26608217 0.3163816 -0.05353923 -0.054933235 -0.14272903 0.14304398 0.4622151 -0.1776083 0.056805793 -0.018947091 -0.25278488 -0.07059993 0.38656315 0.09447081 0.14217871 0.07074009 -0.061979573 -0.17297168 -0.16714711 -0.50675184 -0.03964052 -0.27210727 -0.293836 -0.11988462 0.28229657 0.25656494 -0.21379876 -0.089276314 -0.5453051 0.06369858 -0.08707548 -0.3421282 -0.0014428013 0.41890714 0.08274319 0.24712716 -0.28515467 -0.39441878 0.083474696 -0.110274956 -0.33581188 -0.072633445 -0.012225747 -0.12880422 0.035206165 0.071527645 -0.061599247 -0.14371815 0.10153435 -0.065668136 -0.34537464 0.030399162 -0.30274957 -0.17340027 0.0059793745 0.34526083 -0.12696683 0.4246454 0.18915595 0.13643396 -0.15518567 -0.42063314 -0.009070082 0.035383962 -0.2829417 -0.1287722 0.1696177 -0.07960554 0.07556895 0.20685333 -0.16252163 -0.10033623 -0.16739948 -0.060824767 0.041709296 -0.2211274 -0.03828327 -0.0043147905
561 0.15013808 -0.413759 0.2493438 -0.05121927 0.4010564 -0.41861203 -0.03845818 0.29647273 0.07444517 0.3325837 -0.026733814 0.220506 -0.00771683 -0.16157565 -0.12820688 0.14611132 -0.36947003 0.26979032 -0.33063218 0.29952028 0.1964289 0.4841439 0.03400892 -0.24821675 -0.061531305 -0.029089738 -0.3607836 0.30866793 -0.063085705 -0.18751146 0.055268265 0.025502905 -0.18879487 -0.13638198 0.08475423 0.12761319 0.13505495 0.01568128 0.45690444 -0.023548735 -0.04305544 0.2420203 -0.27078563 -0.08470269 0.035513137 -0.017296335 0.18983087 0.043494835 0.086424276 -0.01438202 0.2067911 -0.25467107 -0.14543514 0.29440132 0.44386268 -0.3638619 0.03314609 -0.21744683 -0.11551045 0.31939158 -0.015089956 -0.019008555 -0.11420839 0.1193967 0.13095509 -0.040138774 -0.1854342 -0.03866642 0.040112562 0.0818255 0.056622554 -0.33363461 -0.20330389 -0.20180102 0.15846057 -0.34776825 0.12111088 0.085824184 -0.15510255 0.02983467 0.009357718 -0.046296526 0.20471422 -0.032212146 0.1247648 0.46460712 0.11339243 -0.10752232 -0.21264726 0.32974845 -0.04789036 -0.020914286 0.0459407 -0.1187136 0.33085454 -0.008537942 -0.04585456 -0.74983007 0.0859357 0.15969351 -0.2672408 0.007845892 -0.20355265 0.37876302 0.22168538 -0.03156849 -0.21603033 0.22910818 -0.13319449 -0.45333427 0.0144923 -0.3220519 0.24825218 0.14772263 0.09372829 0.0014413947 -0.08289652 0.064192735 0.07649945 0.09792132 -0.18515494 -0.09134328 0.02298425 0.3152296 -0.0969635 0.03589747 -0.30042958 -0.1986526
690 0.14226398 -0.29120743 0.16717412 -0.27204096 0.22362337 -0.07226781 0.23744693 -0.088943444 0.12870681 -0.099003784 -0.055134773 0.13160586 0.04739506 -0.2121023 -0.13075429 0.21908586 -0.4027013 0.24896225 -0.30699432 0.40399528 0.0050412547 0.28256324 0.11619059 -0.42158386 -0.19633326 0.09927832 -0.18447676 0.095848896 0.20146185 -0.46964106 -0.10069726 0.022289673 -0.5789386 -0.06407046 0.30025128 0.13650793 0.19155857 -0.16567713 0.4071848 -0.0051654475 -0.06032573 0.31480685 -0.1924793 -0.27061394 0.38381296 0.08829553 -0.043698315 -0.14331724 -0.11982894 0.086038895 0.304689 -0.18773781 -0.14045256 0.3911923 0.50631493 -0.0153874615 0.11985263 -0.2908985 -0.16798589 -0.020921756 -0.14097975 0.10137642 -0.12434889 -0.035002578 0.10147896 0.08198885 0.085197955 -0.14180055 0.15508612 0.27875108 0.12880115 -0.13763522 -0.43982053 0.046986338 -0.035564523 -0.21058716 0.1018931 0.052267056 0.07065762 0.34593216 0.1637516 0.07644861 0.11108427 -0.034787685 0.34537637 0.4261648 -0.061138332 -0.26315987 -0.05162303 0.3162853 0.12565298 -0.03980125 -0.19595797 -0.1689344 0.09392828 -0.073787235 0.07364707 -0.40570658 -0.246203 0.49201262 -0.18388999 0.046703085 -0.3499109 0.15810545 0.0035646409 0.24091159 -0.1776388 0.2217222 -0.097199865 -0.2498482 0.07931379 -0.198682 0.17597674 0.27303755 0.014901412 -0.047110654 -0.1418606 -0.064885594 -0.10966753 -0.046876386 -0.17729166 -0.22583078 -0.023686565 0.21984616 -0.012662144 -0.22413391 0.10905548 -0.23065214
862 0.14594275 -0.40885964 0.38648713 -0.12041593 0.3834953 -0.32423446 -0.01633766 0.12272751 0.1076516 0.4482457 0.12181816 0.2292269 -0.13204964 -0.027381275 -0.11312116 -0.009410906 -0.40554926 0.040503085 -0.2358491 0.19352093 0.17042127 0.5030966 0.003342593 -0.15167253 -0.068463326 -0.039712448 -0.3035403 0.21020919 -0.03477607 -0.4401996 0.1575299 0.10547127 -0.14817204 0.12408991 0.4628649 -0.0010290095 0.28326747 -0.320313 0.15643752 0.22027488 0.05218834 0.14722654 -0.31465745 -0.112114616 0.07693281 -0.25164524 0.01538456 0.030966619 -0.0024214583 -0.067873 0.2324658 -0.38338533 -0.19451544 0.44818273 0.28933606 0.029230483 0.07978354 -0.2760304 -0.052349593 0.21417059 0.13256085 0.07101874 -0.17442551 0.228464 0.4510961 -0.07211037 -0.033341065 -0.033095628 -0.16227612 0.11846516 0.13928322 -0.36951575 -0.16032341 -0.18331781 0.17208363 -0.45249137 -0.060925204 0.024877267 -0.12257478 0.18497771 -0.01809356 0.12578796 0.27738848 0.0446292 0.03626017 0.2794327 0.028921653 -0.23635916 -0.078026816 0.5112525 -0.11270012 -0.009669146 -0.20810667 -0.33478066 0.32040417 0.090841204 -0.1121234 -0.4337644 0.06756513 0.2508766 -0.093243286 0.080257885 -0.42059806 0.22330903 0.16332039 -0.07177688 -0.04253172 0.23672028 0.05728008 -0.42687416 0.056238297 -0.2171025 0.37635186 0.072511375 0.16689608 -0.25109375 -0.3153231 0.20664853 0.046761733 -0.0437155 -0.05808276 -0.068196975 0.032309998 0.19240186 -0.14824973 0.078001186 0.0053688157 -0.13294733
847 0.124765374 -0.16182749 -0.20973244 0.18417132 0.18773857 0.27243137 0.4014876 -0.26261446 0.062672146 0.31575617 -0.0870483 0.022880558 -0.020612728 -0.06340999 0.32703373 0.2735076 -0.027152743 -0.011068627 -0.25332984 0.2980046 0.03322728 0.034742046 -0.44211006 -0.561718 -0.1749676 0.052229077 -0.32620767 0.059870563 0.071328886 -0.007888519 0.19358039 0.0327227 0.19176397 0.18013878 0.011992302 0.08859019 0.0432335 0.07519222 -0.058954086 0.0023611789 -0.21218799 0.11003615 -0.04302499 0.20616719 0.3932279 -0.06194993 -0.35576832 -0.28041965 0.109068245 -0.15666407 0.25426304 0.46468833 -0.050315388 -0.083617985 -0.33659118 0.09209946 0.44361138 0.22150934 0.04013991 0.16789591 -0.073147014 0.305378 0.026791353 0.06967676 0.25695857 -0.20863545 0.083158344 -0.094447054 0.05477767 -0.48129305 -0.08107783 -0.044482786 -0.19800399 -0.06350495 0.45861027 0.13383575 0.07846732 0.09177987 -0.4632446 0.11955288 -0.2628504 -0.33193323 0.11353034 0.49509215 0.31563744 0.36247572 -0.21181212 -0.35462958 -0.05628913 -0.32182655 -0.39252183 0.034950506 0.060830563 -0.1037837 0.03913181 -0.009667665 -0.040207777 -0.44726804 -0.0037035455 -0.21166524 -0.39370117 -0.26317126 -0.16694802 -0.123075835 0.25892326 0.40520486 -0.19855984 0.32907102 0.42853862 -0.08750422 0.07959214 -0.2773808 0.048608955 0.046452563 0.16395138 0.2592863 0.12935123 0.2573392 0.069832444 0.054965798 -0.2629547 0.16549729 -0.33899987 -0.49784225 -0.15191998 -0.61852556 0.008183742 -0.25097582
657 0.18637493 -0.19333331 0.056047015 0.121832505 0.34640434 -0.08589623 0.11177461 0.17614071 0.03465922 0.033766203 0.113899454 0.28431785 0.089370094 -0.1910549 -0.026273813 0.28675133 -0.15564759 0.010015543 -0.19144644 0.13096157 0.094131984 0.19370686 -0.086430945 -0.34616023 0.11412475 -0.18769334 -0.17761333 0.091113076 0.07124568 -0.38810858 0.26589242 -0.13738726 -0.2872214 -0.07435444 0.23761958 0.07408598 0.06679353 -0.1123951 -0.13203473 0.018149152 -0.168849 0.025513055 -0.012788996 -0.073536105 0.17465474 0.021523159 -0.2804808 -0.03164574 -0.35224324 0.18560317 0.1188944 -0.117232606 -0.12401857 0.3526209 0.11139484 -0.12404132 0.35737443 -0.15539134 -0.24867576 -0.015930533 -0.1053347 0.06753877 -0.08821896 0.14586331 0.2714921 -0.00011464808 -0.035115942 0.20089754 -0.302422 0.19356804 -0.11355141 -0.5475202 -0.70018595 -0.18021998 0.11160386 -0.4800647 -0.080154024 -0.24752964 -0.069321886 -0.19719434 0.13067116 0.33043867 -0.041580074 -0.18616095 0.43315497 0.35098627 0.16012341 -0.41714934 -0.106758505 0.101674125 -0.13076977 0.15334836 0.4240816 -0.39223918 0.16747634 0.3139558 0.06471241 -0.5246412 -0.045623507 0.18181117 -0.24328937 0.016988438 -0.21455637 0.19816455 0.14518383 -0.23928496 -0.048565656 0.09698381 0.12824346 -0.32724965 0.027832365 -0.033173665 0.4261787 0.29059508 0.00032851647 0.11224471 0.07165617 -0.06949197 -0.07248614 0.19840355 -0.0035339228 -0.2197772 -0.04404447 0.45547172 -0.4378665 -0.31955567 -0.24502254 -0.102859415
246 0.083905 -0.4605224 0.113349415 0.028102964 -0.005836283 0.06221225 -0.09092865 0.022161052 0.14827834 0.19258653 0.12794845 0.23511265 -0.1294897 -0.25182715 -0.03396331 0.36633587 -0.5501777 0.2206751 -0.32924706 0.015055394 0.3117503 0.43095046 0.04183939 -0.25523552 -0.14271362 -0.06270899 -0.355149 0.34173298 -0.18824957 -0.18429159 0.11936728 0.0020710207 -0.39498553 -0.064885326 0.38120258 0.39423364 0.101341754 -0.10471647 0.1530935 -0.01297753 -0.0013091746 0.40708947 -0.042390224 -0.33848393 0.44619113 -0.17130476 0.16792896 0.08214735 -0.07243719 0.036824062 0.115535654 -0.34873423 0.027132887 0.43324426 0.29356748 0.13511555 0.02463671 -0.17065495 -0.1814761 -0.04041032 -0.2369175 0.23118503 0.10064482 0.06506682 0.20516618 -0.23841496 -0.0025367055 0.13570146 -0.16761276 -0.16685599 0.13602106 -0.23686264 -0.123422064 -0.19371973 -0.15866528 -0.21489568 -0.19754107 0.18844204 -0.009658736 0.29262713 0.051178027 0.19910294 0.13365974 -0.0374011 0.25091934 0.35217136 0.19453046 -0.044818502 -0.11283336 0.50334847 0.26371628 -0.17364578 -0.025870308 -0.21509567 0.3189414 0.11808131 0.097436756 -0.3172183 -0.18460965 0.30516046 -0.21501073 0.03881107 -0.25139815 -0.008598839 0.5527582 0.010614622 -0.12681483 0.094383046 -0.18758184 -0.052842226 0.012239718 -0.35022384 0.2576763 0.178951 0.059404947 -0.066845976 0.009533659 -0.060922727 0.01934172 -0.13041547 0.0024737855 -0.39595076 -0.14279208 0.01125687 -0.076342806 -0.10340429 -0.09832426 -0.07683455
720 0.106647596 0.07474377 -0.07036398 0.24938104 0.1961196 0.13644286 0.28629115 -0.21593235 0.1638748 0.2029812 0.06599858 -0.1540131 -0.17644145 -0.12972409 0.6656747 0.34528175 -0.15705298 0.10150831 -0.6298508 0.32087508 0.13525088 0.025429353 -0.48437706 -0.6116089 -0.4355072 -0.024081811 -0.17786673 -0.11506626 0.12540679 -0.3011123 -0.11926682 0.15776266 0.11885708 0.096222885 -0.17466785 0.31322968 0.0032731614 -0.044866014 -0.18958035 0.40541056 -0.010585817 0.037543297 -0.17097199 0.22701511 -0.069001764 -0.09234864 -0.30511925 -0.37215298 0.025843007 -0.32284236 0.11927417 0.32835054 0.11792007 -0.052082423 -0.47946772 -0.07825999 0.39692 0.32578146 -0.1461799 -0.021765528 -0.40005893 0.2976778 0.119585596 -0.06314316 0.14258787 -0.020377513 0.20304646 -0.425315 -0.22812478 -0.41046426 0.016092572 -0.07286913 -0.43084735 -0.18873285 0.2431836 0.0670807 -0.12631279 -0.32774886 -0.32009006 -0.24444613 0.01638798 -0.4556691 0.24033397 0.32389557 0.116840854 0.19872893 -0.048465032 -0.31441626 0.13670847 -0.022888288 -0.2696709 0.029669734 0.19407836 0.16119425 0.055904754 0.032133274 -0.20421274 -0.22342472 -0.077856444 0.028441837 -0.24101007 -0.15401113 -0.09584289 -0.15532085 0.14639793 0.34636456 -0.21085806 0.18702497 0.22159512 0.17342268 -0.08301526 -0.25878334 0.15805079 0.011946643 0.07474234 0.0102443835 0.16954668 -0.11298036 0.21767657 0.06440968 -0.1492905 -0.26596007 -0.0591302 -0.37068936 0.028596375 -0.26615703 0.10815523 -0.068192974
81 0.12557174 -0.27046385 -0.29446295 0.162149 0.3207874 0.45674193 0.39126354 -0.27877277 0.27349073 0.3036466 -0.027004277 -0.29997572 -0.029777847 0.06135383 0.40646133 0.21533798 -0.07042153 -0.013360647 -0.318243 0.1495193 0.039094016 0.079759136 -0.31594726 -0.36566663 -0.31704256 0.14154378 -0.21412411 -0.06533287 0.054763958 0.037163917 0.10519502 0.12941803 0.1792379 0.13854073 0.048859585 0.23169155 -0.070213936 -0.23865041 -0.0072512315 0.23141493 -0.056602925 0.20705217 -0.23635054 -0.0067862594 0.33661643 -0.13622369 -0.31519222 -0.3193322 0.14675865 -0.18495798 0.14210665 0.3061505 -0.03515843 -0.11735878 -0.3958826 0.19751482 0.41781113 0.19066578 0.13279474 0.15245463 -0.19874261 0.38327137 -0.022541858 0.021436831 0.1418264 -0.085668705 0.03526734 -0.17236699 0.01819384 -0.46301317 0.0034616631 0.03229592 -0.12415191 0.00991239 0.39341587 -0.089461125 -0.07993657 0.18283966 -0.35744154 0.049205683 -0.23168889 -0.11392092 0.057713233 0.4545173 0.25702876 0.35090807 -0.24976183 -0.1423038 -0.09961006 -0.11913719 -0.3347066 0.06259598 0.12362902 0.15286726 -0.034726903 -0.0014917513 0.022184988 -0.5271005 -0.13231799 -0.20646524 -0.3757035 -0.1423332 -0.18379956 0.09281393 0.22478469 0.41113034 -0.22594862 0.28375846 0.5722935 -0.028844487 -0.10616771 -0.42069322 0.13726875 -0.078147255 0.23787615 0.11046541 0.06968366 0.14746082 0.15488023 0.028895605 -0.15771648 0.042195868 -0.15294681 -0.4958699 -0.19066158 -0.51811635 0.09933968 -0.24182941
177 0.22079627 -0.2532604 0.08572653 -0.04550314 0.30746144 -0.11410116 0.34010172 0.025330637 0.10669539 0.1014675 0.14892928 0.51125836 0.05451333 -0.21366765 -0.2146379 0.33286044 -0.21443678 0.082208514 -0.12201087 0.07664818 0.2057983 0.29148436 0.0321869 -0.4683387 -0.24710551 0.09015814 -0.20971166 0.11546506 -0.005053385 -0.24773592 0.2460934 -0.15661278 -0.23251362 -0.10306257 0.2044333 0.27365106 -0.043294135 -0.08969193 -0.25128567 0.037848514 -0.0071636457 0.26747262 0.010475726 -0.13073467 0.23181054 -0.066223815 0.14730199 0.07115036 -0.2437742 0.062185798 0.16900803 -0.058448903 0.09903602 0.46406767 0.13649683 -0.17693041 0.3104746 -0.4087423 -0.24346267 0.007082124 0.073957615 0.008922016 -0.12222706 0.19547467 0.08286336 0.11764817 -0.017241389 -0.11226524 -0.25212926 0.045458432 0.07215687 -0.3060179 -0.44754773 0.019690946 0.118509 -0.22164227 -0.14686227 -0.29204157 0.05060342 -0.06336464 0.09421569 0.045156203 0.015513967 -0.054277502 0.35934103 0.48898408 0.069562845 -0.37701917 -0.18503973 0.18380058 0.018109854 0.0896282 0.37880486 -0.2968372 0.35493067 0.15776147 0.12481166 -0.4025943 -0.22328776 0.334833 -0.06892888 0.04213213 -0.27524284 0.014588918 0.25079674 -0.24197122 0.053194977 0.05689598 0.026032273 -0.54957914 0.07219409 0.06646341 0.3247036 0.15686129 -0.069406286 0.07313211 -0.012236654 0.040358584 -0.1107078 0.10176111 -0.050906394 -0.20219688 0.025350636 0.5314575 -0.54791594 -0.18762542 -0.2843157 -0.1746608
126 -0.28993997 -0.04293868 -0.17201537 0.23167919 0.33733803 0.17266487 0.14685528 -0.33155015 0.24122077 0.332376 -0.083597265 -0.21182783 0.20943639 -0.06549184 0.34655663 0.21262133 -0.29754412 0.034749374 -0.25259906 0.5679147 -0.17186587 0.25513816 -0.45165518 -0.19113012 -0.35125363 -0.050841894 -0.09739806 -0.021688085 -0.06526525 0.13286577 -0.11736676 0.31271166 0.36298138 0.006990225 0.059897628 0.18853202 0.025205802 0.06623181 0.09931542 0.4365091 0.06301378 0.36828443 -0.026503429 0.10720479 0.25538749 -0.106752776 0.08736962 -0.32033145 -0.16703315 -0.26567793 0.19004741 0.3513235 0.080087 -0.004174245 -0.41060114 0.26973414 0.2762675 -0.21105714 -0.28269 -0.12219737 -0.41296938 0.04811139 0.39465037 0.079682864 0.10234991 -0.16853835 -0.25545773 0.11222444 -0.20967263 -0.37317073 -0.018956205 -0.26349035 -0.2931903 -0.09022339 0.21026751 0.185313 -0.11440552 -0.29575038 -0.62420213 0.077014916 0.0721869 -0.10087278 0.26088634 0.4110438 -0.00651786 0.30927095 -0.15915668 -0.37020648 0.17078875 -0.17762655 -0.15957467 -0.010979925 0.031616095 -0.16535293 0.010768039 0.18327685 -0.21786577 -0.27041137 0.33596033 -0.40944436 -0.27226955 0.09352379 -0.27811557 -0.09471992 -0.15175442 0.50576335 0.008527761 0.46670598 0.12544909 0.07598774 0.031000385 -0.43398234 0.17148826 0.01761267 0.15406713 -0.21023245 0.10557307 -0.07138097 0.3017295 0.11112695 -0.2113215 -0.06344076 -0.060560647 -0.05939883 0.12302472 -0.3181429 -0.0021984193 -0.3254732
826 0.109583504 -0.3909266 0.03579647 0.119782254 0.3928447 -0.2806493 0.3311813 0.18793687 0.06124833 -0.007975833 -0.03980192 0.3378703 0.0007466982 -0.14592892 -0.20722501 0.28978777 -0.41489223 0.23314723 -0.12054069 0.13389958 0.053889964 0.22649871 -0.09570884 -0.40106025 -0.056646004 -0.05577653 -0.40463477 0.1744977 0.06876549 -0.14005864 0.34243816 -0.13083148 -0.18985884 0.08400946 0.14495769 0.110126175 -0.051511176 -0.26713368 -0.1429977 0.24677502 -0.020615077 0.14383152 -0.052385863 -0.208415 0.15676196 0.07154341 0.27285758 0.07824178 -0.3151804 -0.007830114 0.2095302 0.09265689 -0.1734325 0.26140344 0.06762164 -0.13536221 0.25749907 -0.14832348 -0.027948836 -0.07798819 0.07909813 -0.043948483 -0.12232466 -0.008943778 0.14224036 0.04166537 -0.32914641 0.15387456 -0.21159019 0.08550572 -0.015043286 -0.3565256 -0.6976713 -0.14480521 0.055514026 -0.30591297 -0.037815075 -0.20303346 0.14370906 -0.022230973 0.1733576 0.089556955 0.053345703 -0.028889498 0.2854105 0.31466356 0.08793917 -0.45197022 -0.21489887 0.41575694 -0.12741043 0.116534874 0.20483014 -0.29851553 0.1272712 0.3131647 0.1254823 -0.5895402 -0.03333912 0.3776132 -0.0757629 -0.08720787 -0.0720243 0.057523523 0.18819585 -0.21740624 -0.10038235 0.14999415 0.13859779 -0.3796057 0.035959292 0.07019231 0.19724457 0.010745925 -0.18262212 0.18664853 0.14485961 -0.1282557 -0.040032238 0.31051636 -0.0782954 -0.3904353 -0.16601588 0.59376025 -0.38157216 -0.20538445 -0.058678888 -0.11884417
716 -0.21261777 -0.07400419 -0.2524275 0.19573057 0.25141785 0.20874856 0.33412245 -0.5284089 0.08322759 0.10172084 0.006959217 -0.13631068 0.1837451 -0.13533176 0.2737437 0.18529612 -0.3435855 -0.110242926 -0.37302303 0.39389265 0.17571677 0.30004832 -0.39030087 -0.3398398 -0.24391252 -0.0686696 -0.0018080068 -0.046938397 -0.118190035 -0.030135259 -0.05677184 0.17744045 0.47176537 0.0793775 0.12288061 0.16957094 -0.064917654 0.037007473 -0.016706437 0.57990015 0.038420852 0.32751822 -0.20383431 0.09904332 0.26750243 -0.09934073 0.1643627 -0.4358158 -0.08906849 -0.12643674 0.26694366 0.3358281 0.19760995 0.07051866 -0.12636144 0.08256596 0.28506088 -0.019112904 -0.08288157 -0.014189936 -0.30315912 -0.11197273 0.2944954 0.30253413 0.047317892 0.013306978 -0.3905529 0.049036544 -0.25932485 -0.42664477 -0.065916926 -0.1297109 -0.15514722 0.027111636 0.39196536 0.2500997 -0.26052943 -0.20689547 -0.6040341 -0.078631185 -0.2012933 -0.24741068 0.17047866 0.38107347 0.01934303 0.37911174 -0.21051462 -0.337337 0.12601897 -0.26503932 -0.14293323 0.026756119 -0.034037337 -0.12925608 0.11196907 0.017794324 -0.06531208 -0.2618993 0.09882473 -0.1615044 -0.47448033 0.0812623 -0.21650918 -0.28197497 -0.16793564 0.4490205 -0.036689006 0.36341333 0.26248473 0.20089382 -0.007885465 -0.6583973 0.30490953 0.037838597 -0.113079034 -0.24759065 0.36709547 -0.16478357 0.10182941 0.08638494 -0.06333809 -0.09546197 -0.13549183 0.052809842 0.041867375 -0.1780127 0.046377756 0.03966287
893 0.085348405 -0.14312665 0.17993948 -0.0531221 0.24038804 -0.2614848 0.25985256 -0.015616338 -0.00016487335 0.12463507 0.038204152 0.2968034 -0.15864937 -0.16060522 -0.17365614 0.0720163 -0.57248855 0.2658643 -0.24575242 0.2558954 0.2188444 0.12536418 -0.051859092 -0.53056645 -0.011010079 0.19491778 -0.12437431 0.057180032 0.27880386 -0.21553427 0.0067177555 0.00986109 -0.50155187 -0.08451125 0.30415276 0.1735139 0.106747665 -0.04974696 0.23594503 0.1997152 0.19240142 0.33452252 -0.05628077 -0.060489863 0.32933512 -0.09156346 -0.08451891 -0.15268356 -0.24592054 0.027085524 0.3827359 -0.23392196 -0.20525919 0.37675306 0.39065036 0.11073477 0.18545865 -0.21269883 -0.1810448 0.14718714 -0.07106708 -0.019310558 0.009510853 -0.09447239 0.037774064 0.10264876 -0.040044323 0.04930686 0.12851593 0.38833794 0.15602924 -0.2068024 -0.39264798 -0.16432594 -0.041210942 -0.27734587 0.02605317 0.14708653 0.11867013 0.32607922 -0.07315935 0.017469719 0.0435398 -0.2611291 0.25470784 0.2706848 -0.000554504 -0.2656628 -0.10570689 0.42822793 -0.081937976 0.11516232 -0.20536558 -0.37555644 0.33703917 0.16688046 0.06786317 -0.3306065 -0.3011877 0.11702734 -0.19975692 0.0608206 -0.54054356 0.21989064 -0.014735443 0.19560206 -0.1097879 0.15653165 -0.25508893 -0.05982791 0.03286859 -0.13011527 0.3832161 0.29427513 -0.006961867 -0.034183487 -0.121181786 0.12759268 0.0076515083 0.050964337 -0.22162141 -0.31460777 -0.116893336 0.22249196 -0.01581252 -0.13286166 -0.077982426 -0.30384305
543 -0.09620451 0.20855996 -0.13300437 0.25969616 0.21075897 0.14511047 0.33614135 -0.31199738 0.15923114 0.020084891 0.12472733 -0.2244436 -0.023618996 0.058408756 0.53895175 0.15963185 -0.22353548 -0.061821442 -0.47246343 0.47949603 0.19670549 0.123666026 -0.47306144 -0.6557099 -0.47073182 0.1659766 -0.14806317 -0.20168334 -0.01956462 -0.20454691 -0.0765671 -0.05815596 0.3016067 -0.18304764 -0.15859573 0.27815405 -0.02859126 0.22367924 -0.1835221 0.21779917 -0.14100729 0.075825855 -0.07085649 0.12771598 0.21633688 -0.15370694 -0.20379096 -0.064361595 -0.022894233 -0.1585658 0.128076 0.4523308 0.14705107 -0.10546398 -0.21559982 0.17199224 0.43405965 0.18483315 -0.12519625 -0.07196803 -0.3842371 0.30436176 0.08843884 -0.007197134 0.039754193 -0.018651612 -0.03145838 -0.31482583 -0.15483068 -0.47136277 0.08444719 -0.2588835 -0.4350548 -0.07977187 0.19569574 -0.012737474 -0.1750921 -0.2641071 -0.38230535 -0.16365379 -0.1083961 -0.45153636 0.112396635 0.29952505 0.23892951 -0.030347863 -0.13108464 -0.46723276 0.06811491 -0.20102392 -0.4133192 -0.07997708 -0.02287963 0.13948357 0.0020044174 0.047094256 0.019775907 -0.23618071 -0.3538538 -0.047305334 -0.39452296 0.03255845 -0.16303927 -0.052857652 -0.10118551 0.49549288 -0.035521 0.3299616 0.24857907 0.04715297 0.1785093 -0.48975906 0.09630863 -0.02729487 0.11091648 0.16096711 0.14343755 0.036411278 0.21235032 -0.17897242 -0.012226508 -0.2510114 -0.03761089 -0.29170164 -0.09675485 -0.28156874 0.08126927 0.032612815
8 -0.0963121 -0.17537753 -0.2374686 0.10823458 0.05534182 0.32014742 0.28255314 -0.33940777 0.05768294 0.41201508 -0.24940065 -0.05643992 0.059295546 -0.03451797 0.07367263 0.33532777 -0.3375039 -0.083933234 -0.21969308 0.4457469 -0.06420189 0.16769674 -0.5293729 -0.3847176 -0.010502338 0.13583243 -0.24393511 -0.1916667 -0.11238959 -0.033819057 0.19709009 0.207037 0.2639068 0.07897076 0.23010713 0.28625482 -0.10679495 -0.09865419 -0.11577898 0.25871 -0.08049227 0.21756661 -0.1089199 -0.039173894 0.45337233 0.16775341 -0.12903778 -0.26140636 0.16532207 0.036544364 0.20675553 0.404726 -0.07386232 0.0014438551 0.017697765 0.15619226 0.4302561 -0.31730136 -0.12345855 0.05454 -0.3178161 -0.053311236 0.10117512 0.1705644 0.27279308 -0.2148873 -0.0709802 -0.09230738 -0.2797531 -0.5291695 -0.2813746 -0.06023285 -0.1432124 0.010925511 0.1858485 0.22250466 -0.06923768 -0.043286353 -0.7054097 0.01828641 -0.19055875 -0.32462046 0.05938437 0.53573227 0.12719339 0.0865305 -0.34996146 -0.2374496 0.19554405 -0.1967205 -0.27236414 0.11576234 0.10513601 -0.035633113 0.044662002 0.21639393 -0.2303375 -0.19479573 0.20359793 -0.15040128 -0.4286161 0.097805575 -0.3015048 0.00853967 -0.08113871 0.6182104 -0.01170372 0.3719672 0.357501 -0.057698943 -0.0879919 -0.49402484 -0.057782885 -0.044976193 0.09047012 -0.059037082 0.025068287 -0.091453016 0.29278052 0.15975076 -0.052177895 0.18046954 -0.007981065 -0.05624511 -0.001070256 -0.3733771 0.1220331 -0.4997713
133 0.124834105 -0.14747277 0.107853614 0.14235617 0.1962167 -0.14483759 0.21657065 0.055416938 0.14910713 -0.027745618 0.08604497 0.4904526 -0.12383956 -0.2042322 -0.04567518 0.16928253 -0.37378523 0.097011425 -0.10632251 0.102147385 0.08113021 0.16794589 -0.04169738 -0.1852077 -0.1464695 -0.0031131373 -0.3010841 0.2624849 0.05532174 -0.12240543 0.2790489 -0.07004582 -0.10318932 0.018575734 0.2913231 0.0586252 -0.054855082 -0.21943285 -0.12662126 0.13608004 -0.021038193 0.34645614 -0.14796385 -0.009967225 0.25213793 -0.10566203 -0.014016427 0.060256273 -0.2534442 0.04562401 0.2070741 0.065338604 -0.13917 0.2603316 0.17071944 -0.31404433 0.20713587 -0.04027483 -0.13308318 -0.11592819 -0.12306123 0.07682838 0.0019684033 0.13803133 0.15520781 0.038159676 -0.10549047 0.1924231 -0.17363 0.091403954 0.001101098 -0.4368624 -0.6918567 -0.118078016 -0.061427295 -0.3284555 -0.019630631 -0.39758033 0.077471405 -0.0947203 0.13445191 0.11782025 0.04057654 -0.008612553 0.2951347 0.25434712 0.034745976 -0.40143132 -0.41160393 0.35476172 -0.012816624 0.14857294 0.286652 -0.30042034 0.23502393 0.41727707 0.06946682 -0.61721545 0.04830067 0.39357916 -0.18601392 0.07394785 -0.24698092 0.00830808 0.24002947 -0.23983763 -0.023469448 0.09044851 0.12298747 -0.4960404 0.14893636 -0.02606649 0.23171473 0.1319177 -0.14876471 0.071142755 0.08293835 -0.10111445 -0.0076453895 0.09671387 -0.029985735 -0.23221341 0.027531484 0.48355228 -0.43863207 -0.047137454 -0.28340405 -0.22948946
278 0.12752113 0.07374599 -0.1868986 0.25840554 0.26650894 0.009880162 0.19024508 -0.4225035 0.18768278 -0.036632765 0.034342322 -0.099493265 0.0016658488 0.020853717 0.46603197 0.4469471 -0.06232145 -0.010666336 -0.4247854 0.22442567 0.15765308 0.20017439 -0.42843097 -0.7320546 -0.28432015 0.24726458 -0.14355306 -0.1660818 0.091873854 -0.16264825 -0.22347361 0.08040644 -0.07817388 -0.09483978 -0.029520107 0.33764914 0.028935153 0.0019890412 0.024089215 0.24049442 0.22053435 -0.009927708 0.0508891 0.17931886 0.028147563 -0.19246499 -0.15035835 -0.20763811 0.06453921 -0.27708885 0.32162076 0.22491944 0.21368866 -0.061115786 -0.5279876 0.18216746 0.48515192 0.19036 -0.26519507 0.01606828 -0.36084238 0.13329366 -0.061877724 -0.07779597 0.0006371461 -0.3832359 -0.044889033 -0.075592436 -0.12177071 -0.44628367 -0.11540567 -0.197724 -0.49765018 -0.18212505 0.42398638 0.08874174 0.053262405 -0.21469203 -0.47985646 0.26682213 -0.12398434 -0.44033092 -0.0041476744 0.2588203 0.20663159 0.15334694 -0.231838 -0.35289222 0.22731864 -0.3315935 -0.27346492 0.004292618 0.17860563 0.08316328 -0.012025803 0.05485321 0.01354401 -0.12997207 0.053563897 -0.24710113 -0.30739915 -0.015735356 -0.18388672 0.026634932 -0.00096871145 0.046231642 -0.21927026 0.23194899 0.39320356 -0.05592946 -0.15462746 -0.41863447 0.17309514 -0.08866824 -0.23381563 0.08593736 0.13709907 0.09736212 0.3645262 0.0945568 -0.046576615 -0.07252197 -0.27591628 -0.12615424 0.11055391 -0.17795329 -0.13281535 0.049496885
109 0.2628772 -0.42172706 0.10115923 0.15529157 0.27092353 -0.1763321 0.090752855 0.05297519 0.1476846 0.008536476 0.18903747 0.3016768 -0.07043778 -0.23114504 -0.1402947 0.23739122 -0.4375074 0.08717517 -0.08061373 0.13463144 0.14717072 0.09531261 -0.18602878 -0.31258503 -0.2272766 -0.08102541 -0.15284654 0.17614184 0.134082 -0.21277776 0.40570235 -0.13894795 -0.16456157 -0.091631204 0.3066209 -0.024851767 0.045008954 -0.031227829 -0.044965167 0.027671184 -0.11505619 0.051477697 -0.07983258 -0.1288165 0.17588839 -0.12799725 -0.050621353 0.018944044 -0.3275437 0.08244246 -0.06414715 0.023145782 -0.3539413 0.22102302 -0.096229546 -0.22758271 0.3004076 -0.023144692 -0.19935292 -0.3148516 -0.16766784 0.033283252 -0.11504076 0.17710592 0.20262873 0.12546633 -0.04978175 -0.07571325 -0.24929294 0.09239617 -0.06916823 -0.48030782 -0.49419874 0.043243706 -0.07806294 -0.098194234 -0.021804687 -0.21680613 -0.10653115 0.03735432 0.0054338276 0.18762721 0.06440847 -0.20075138 0.45567343 0.33157688 0.15488398 -0.34932375 -0.3252921 0.42046496 -0.0014394913 0.19193605 0.31800565 -0.42787394 0.30027822 0.32098082 -0.064186394 -0.5811483 -0.075878285 0.18879457 -0.04501301 -0.2055323 -0.33983898 0.21063817 0.16939089 -0.22514436 -0.17406794 0.19972593 0.09444433 -0.3961631 0.048277233 0.099056914 0.40493736 0.1949178 0.04623492 0.12734991 0.20203483 -0.022358915 0.0043991567 0.15842801 0.057361845 -0.27273014 -0.029365132 0.50674933 -0.4874069 -0.1467714 -0.14101546 -0.08187302
533 0.14005208 0.08988301 -0.29090315 0.00709776 0.21530016 0.22611995 0.3032544 -0.36676493 0.056701787 0.14959012 -0.16918707 -0.04050209 0.019488523 0.3050857 0.2060845 0.2919801 0.32284468 -0.03738152 -0.11788599 0.32509887 0.2756421 -0.08955244 -0.15857513 -0.47648132 -0.28812748 0.09610362 -0.035564855 -0.14932445 0.058229383 -0.16083807 0.091730066 0.1304736 0.10631916 -0.10440131 0.21673618 0.22542486 -0.24674147 -0.043674365 -0.049230717 -0.071581796 -0.13338271 0.3527639 -0.20507161 0.1590707 0.35639983 0.06616493 -0.32477102 -0.22061738 0.0011694562 0.13860229 0.16865994 0.47011018 -0.06452425 -0.21926017 -0.38497192 0.05393797 0.23931511 -0.084157996 -0.041962616 0.16471529 -0.1371049 0.10047838 0.14611071 0.0857951 0.12696601 -0.017686956 0.123988755 -0.2493642 -0.10517011 -0.5212172 -0.061088353 0.037207853 -0.35773072 0.14106707 0.30357465 0.11602504 0.11070898 0.102545574 -0.32798344 0.2355363 -0.16290067 -0.28226417 -0.024769263 0.6231431 0.21269883 0.3351868 -0.13221662 -0.2750725 0.14643055 -0.17533639 -0.2813521 0.021760277 -0.04508692 -0.057788335 0.17749314 -0.034129314 -0.00582778 -0.7290144 -0.11776324 0.027067266 -0.33290794 -0.037514385 -0.29474536 0.08071986 0.033463486 0.3459318 -0.26405406 0.21348086 0.54375774 -0.24249785 -0.03905304 -0.27951854 0.33179414 0.1802735 0.11819527 0.0621721 0.34152767 0.038727734 0.21849972 0.14569177 -0.007345218 -0.11644706 -0.17296037 -0.3851484 0.031230768 -0.49230173 -0.014784824 -0.31682065
338 0.1749412 -0.5027863 0.017676007 -0.20906709 -0.022679865 -0.037349496 -0.024621326 -0.058285154 0.12153854 0.12916829 0.24010672 0.05862869 -0.008417716 -0.18291438 -0.34810433 0.27751416 -0.48563477 0.0065670474 -0.2679919 0.036781423 0.45835665 0.3731005 -0.15011434 -0.3531294 -0.102242574 0.0017492481 -0.28721955 0.22561868 -0.027776685 -0.32607105 0.14454144 -0.045069326 -0.2534892 -0.2019431 0.2479851 0.27090964 0.15608312 -0.09575548 0.34274673 -0.07603799 0.22941935 0.2876604 -0.08201956 -0.29912627 0.25841135 -0.18954019 -0.04406127 0.027411796 -0.109448925 0.30780876 0.21961965 -0.40222993 0.14481394 0.45323154 0.20547414 -0.028558522 0.086929694 -0.24412313 -0.39101356 -0.021298919 -0.4208237 0.3411724 0.1324711 0.1270742 0.001149255 -0.17346719 0.018358734 0.2055935 -0.28278285 -0.2152411 0.15122266 -0.14700177 -0.16854176 -0.26781702 -0.30370396 -0.23667942 0.004171822 0.061442703 0.002961662 0.111344606 0.05622807 0.33739302 0.19079705 0.025435995 0.17751066 0.34639916 0.26061428 -0.45365307 -0.054841843 0.45799816 0.2555133 -0.096714005 0.03610789 -0.0911705 0.2874734 0.030328125 0.072367676 -0.37156087 -0.20200396 0.26344705 -0.056424785 -0.034715638 -0.35584888 0.11652275 0.3542454 -0.04200725 -0.15757878 0.18160592 -0.25742775 0.022887334 0.03366611 -0.29118717 0.43589446 0.15743795 0.023035048 -0.093359575 0.073112935 0.072294936 -0.0325381 -0.10789983 -0.13635184 -0.3626041 -0.06860378 -0.05981832 0.012423938 0.10284336 -0.07644471 -0.33802724
394 -0.057535343 -0.15080298 0.30942035 0.19563219 0.1390535 -0.1467974 0.0121899415 0.14359133 0.14011133 0.15341385 0.11520471 0.3457687 0.071539454 -0.0009402902 -0.048764564 0.10758106 -0.2470662 0.13151659 -0.32272133 0.08559368 0.024343539 0.21903647 -0.122905076 -0.35727865 0.010672231 -0.08427724 -0.15663159 0.24305852 0.006484163 -0.19354858 0.26654914 -0.023506297 -0.24601007 -0.15698782 0.36398238 0.14503531 0.079498895 -0.4147853 -0.053527042 0.0137331765 -0.1744634 0.07273298 -0.041982245 -0.20115332 0.17087604 -0.1318645 -0.059884127 0.119675085 -0.11047129 0.3413449 0.13482086 0.0040028733 -0.22300142 0.45134085 -0.097042166 -0.3163225 0.23549844 -0.14275435 -0.071975574 -0.12157353 -0.18786313 -0.002731868 -0.1460704 -0.018766956 0.26498693 0.27143472 -0.053798873 0.18999156 -0.21476035 0.0082790265 -0.083491094 -0.4724948 -0.4822585 0.063425936 0.082585335 -0.22119705 -0.0847805 -0.26372567 0.07613038 -0.14306436 0.18818356 0.14307436 0.055479564 -0.10468048 0.33581337 0.30509895 0.051957194 -0.5401244 -0.26128608 0.43945342 0.11447636 0.30177185 0.33361098 -0.44332415 0.3392724 0.36514175 -0.18967955 -0.4434944 -0.016007323 0.30474776 -0.12162729 0.029843654 -0.26089132 0.06368714 -0.0029179214 -0.03823529 -0.019931233 0.22454996 0.12210069 -0.52566946 0.096754804 -0.19858405 0.3313296 0.22589843 -0.0003903688 0.07850525 0.06060281 -0.23371582 -0.07236069 0.0851418 0.14440165 -0.31897238 -0.08112212 0.42944095 -0.4254987 -0.36291462 -0.08374781 -0.22073878
13 0.01566632 -0.28402486 0.0122318175 -0.17757656 0.12314498 -0.046374932 -0.08106527 0.09745092 0.08298391 0.2669505 0.06194943 0.22728941 0.08783981 -0.32730326 -0.3249375 0.36292526 -0.48730245 0.15988153 -0.32127786 0.14195904 0.40082812 0.2287907 -0.20400101 -0.24691963 -0.08733554 -0.08224699 -0.32464984 0.23534203 -0.15549481 -0.30614203 0.11360762 -0.027036041 -0.49130285 0.07126116 0.2427625 0.19109097 0.047943108 -0.16236955 0.17289634 0.11236072 -0.04449007 0.30192906 -0.040576965 -0.2846896 0.40760612 -0.1625007 -0.091691695 0.11432222 -0.097217515 0.091545686 0.21796674 -0.35293886 0.07327295 0.2850794 0.2570233 0.19376414 -0.110790975 -0.20605372 -0.09517448 0.013923789 -0.36191195 0.20729935 0.0788142 0.101533614 0.17222756 -0.24144214 -0.057584316 0.22740407 -0.15759733 -0.2258316 0.028954428 -0.35283554 -0.10596336 -0.21915168 -0.14895195 -0.12077202 -0.14237939 0.16944104 0.070633896 0.1196431 0.04929137 0.35195583 0.08543363 -0.06202566 0.21372756 0.44389156 0.1891322 -0.37084675 0.067962244 0.47558287 0.24341147 0.06123569 0.11848606 0.01012762 0.22387211 0.14430308 0.001192268 -0.34488794 -0.1631081 0.40812632 -0.1147009 0.03492666 -0.31250697 0.058702454 0.37043896 -0.004896873 -0.29992062 0.0067727566 -0.33256167 -0.10218507 0.03863415 -0.31590912 0.4741918 0.133043 0.24814278 -0.17420071 0.11582044 -0.039208937 -0.09592946 -0.2387097 -0.17597966 -0.38953903 -0.066456966 0.11267443 0.02682603 -5.9048383e-05 -0.07333731 -0.17847455
721 0.047128364 -0.10433578 0.29389837 0.058186334 0.09469651 -0.17145415 0.22040002 -0.08027015 0.11517449 0.17318217 -0.0061816243 0.17338014 -0.08944375 -0.085527204 0.0064231902 0.22821088 -0.3825473 0.054392755 -0.27724323 0.5012752 0.16588886 0.20373921 -0.0980425 -0.29720995 0.03650986 0.23913537 -0.23298615 0.3870086 0.18468548 -0.23261492 -0.15834208 -0.07419054 -0.3268505 -0.028717015 0.17243889 0.16225228 0.10381676 -0.24369416 0.36716622 0.35477275 -0.066984996 0.29466274 -0.012449974 -0.22067197 0.28716832 0.057202544 -0.09048671 -0.11213631 -0.13558109 -0.037892204 0.31035852 -0.100330584 -0.062141366 0.3931495 0.41939065 -0.019071057 0.01487115 -0.16888781 -0.08808059 0.12021739 0.0834593 0.2270224 -0.08903689 -0.026195437 0.02332954 -0.015718324 0.12082932 -0.25000015 0.1643806 0.19268727 0.06144578 -0.24432108 -0.30126783 -0.07149801 0.007966522 -0.37582216 0.046414338 0.044129144 0.15535343 0.24587606 -0.09665583 0.18031482 -0.027529718 -0.25441936 0.25046724 0.3620397 0.09099832 -0.28477532 -0.1813426 0.45603722 -0.02143385 0.23074308 -0.071239345 -0.27990505 0.22337525 0.19041458 0.10017821 -0.30133104 -0.40017185 0.34547392 -0.10872137 -0.09257104 -0.27258262 0.2234596 -0.0030923765 0.19566 -0.026342675 0.11221386 -0.20940028 -0.023276899 0.0045969975 -0.15933946 0.41534784 0.4859378 -0.13085942 0.0028760058 -0.040935293 0.15885743 -0.0674808 -0.054633494 -0.24907598 -0.14593071 0.029168442 0.15278277 -0.14914046 -0.35280553 -0.091470614 -0.33868918
780 0.1288651 -0.10394953 -0.15680483 0.1345648 0.16748437 0.10834717 0.30093956 -0.38824835 0.08224627 0.08075498 -0.3393968 -0.017950013 -0.057696335 0.19447745 0.2725943 0.29831338 0.072933026 -0.13662355 -0.22686446 0.25557774 0.021222847 -0.048249744 -0.35957038 -0.4170868 -0.22631899 0.032922644 -0.15470344 -0.1358134 0.12150731 -0.031377267 0.13285507 0.035521414 0.07053614 -0.100238696 0.012282506 0.18412077 -0.0038922837 -0.074152045 -0.15113029 0.14651562 -0.12040637 0.39036804 -0.38569984 0.1997067 0.28883588 -0.14787108 -0.3881014 -0.2265076 0.14960383 -0.18850815 0.2741489 0.55243826 0.09779427 -0.12222473 -0.26729047 0.16088046 0.42222172 0.014318323 -0.104415126 0.19121318 -0.1869357 0.38486964 0.046608645 0.039222024 0.22434391 -0.053136904 0.04816838 -0.33843172 -0.15256098 -0.3652878 -0.026318725 -0.0825652 -0.277624 -0.1984831 0.5038402 0.077571265 0.0026298647 0.09429905 -0.49247852 0.11807011 -0.18567206 -0.107518695 0.0288908 0.4992001 0.12874348 0.3427821 -0.3239361 -0.1667267 0.0767969 -0.2847814 -0.37035012 0.045057606 0.20099421 0.09071693 0.074640654 0.021553548 -0.11659739 -0.4023371 -0.052450575 -0.052963153 -0.35415122 -0.004941356 -0.27388337 0.117166966 0.1686498 0.3771453 -0.24716249 0.4382841 0.42054617 -0.07974816 -0.086613685 -0.35593772 0.14941959 0.06358985 0.08067888 0.15713441 0.13727508 0.304585 0.15771466 0.043420546 -0.09563961 -0.027469097 -0.18045105 -0.4725767 -0.02345488 -0.5837983 0.24864912 -0.33003262
947 -0.08816936 -0.10183229 -0.073088594 0.37713304 -0.01818174 0.36166915 0.16369869 -0.49440125 0.19583957 0.15700592 -0.12639312 -0.13367799 0.32781178 -0.14542706 0.28580835 0.07538184 -0.22382268 0.10883471 -0.20916763 0.3469489 0.19777147 0.2468354 -0.43062583 -0.42156234 -0.23149921 -0.029044272 -0.13592073 -0.009840269 0.013366748 -0.16096409 0.037455738 0.32237414 0.5760216 0.09202182 0.13941818 0.16973698 0.06283204 0.088404335 -0.2782845 0.4459825 0.20152791 0.32039714 -0.07133656 0.31293917 0.37085932 -0.17013453 0.15742914 -0.55637 0.13350803 -0.011614748 0.22425905 0.277411 0.093277484 -0.11052669 -0.07802379 0.17310916 0.48585114 -0.2718677 -0.11542221 0.024967752 -0.38924092 -0.15319318 0.3691115 0.21206212 0.061186377 -0.09301543 -0.22086981 -0.042590164 -0.1775459 -0.4712529 0.0014314464 -0.2936538 -0.40021545 -0.20082858 0.17126372 0.21998079 -0.2397615 -0.24804011 -0.5419758 0.049458947 -0.07210305 -0.33045414 0.32450208 0.36733252 0.09440587 0.1654538 -0.2019664 -0.38925153 0.09188666 -0.14174885 -0.2250346 -0.12788266 0.037017323 -0.13919419 -0.012352119 0.12083728 0.076548845 -0.14377901 0.09359254 -0.07830694 -0.42044285 0.01133093 -0.22685128 -0.2750514 -0.009225141 0.3981866 0.041689616 0.38417938 0.3180598 0.053593192 -0.08917812 -0.4388184 0.10250956 0.10407868 -0.02494888 -0.25740907 0.04201056 -0.074483015 0.09063391 0.14266562 -0.19656578 -0.11970256 -0.11399578 -0.118317425 -0.08808559 -0.23106723 -0.16550802 -0.229278
666 0.13610584 -0.24433787 0.15864183 -0.07805333 0.18608014 -0.046008874 0.23269568 -0.020921255 -0.0058800685 0.08993314 0.12586403 0.18904275 0.008415528 -0.18218003 -0.29544842 0.18371283 -0.5083943 0.157913 -0.26781565 -0.04535823 0.23548211 0.2697152 -0.0397689 -0.29655418 0.044271216 0.08686109 -0.24235182 0.06253494 -0.23572391 -0.028443627 -0.0087036025 -0.016607322 -0.34906268 -0.076274134 0.35252255 0.09109478 0.07618313 -0.059122525 0.051331684 -0.047867138 0.16604468 0.3587265 -0.071930684 -0.3011323 0.2837666 -0.11437589 0.0074551054 0.12161288 0.09647213 0.15246537 0.114945814 -0.32619426 -0.15516554 0.46636942 0.09906113 0.059561703 0.10405469 -0.3140429 -0.2908568 0.123962 -0.40121353 0.28029978 -0.004568951 0.19339985 -0.037911247 -0.015104051 -0.04302854 0.22556746 -0.15405385 -0.20249318 0.19959486 -0.31050974 -0.28361505 -0.39999613 -0.19473088 -0.2519941 -0.14484973 0.2899915 0.11424238 0.35718906 0.12361975 0.29138607 0.2620991 -0.06986384 0.16553535 0.5508756 0.12562634 -0.2358178 -0.22950538 0.4577443 0.28020376 0.037508138 -0.002304641 -0.053878658 0.2629299 0.11820748 0.18857326 -0.4622001 -0.073188335 0.33312184 -0.29849905 0.060883988 -0.28463915 0.106984004 0.39254907 0.050450254 -0.005304102 0.21608646 -0.2618686 -0.14389531 0.09860913 -0.26369205 0.2454923 0.09079211 0.06872851 0.054244287 0.13292846 0.041568935 -0.0076083755 -0.2668625 -0.19680354 -0.39648926 -0.21606143 -0.16275392 -0.021865848 0.013437507 -0.034509156 -0.16796753
283 0.11228522 -0.34204227 0.0070073535 -0.1522876 0.07127916 -0.057629723 -0.10489659 0.15878004 0.07325187 0.13345258 0.095537364 0.13102548 -0.08649102 -0.21684334 -0.22107893 0.17935233 -0.6557742 0.20890282 -0.29235455 0.02795811 0.36497486 0.38792342 -0.13443933 -0.40610862 -0.17393401 -0.132215 -0.43448156 0.27254644 -0.09539791 -0.22602968 0.04747034 0.0010682279 -0.42849717 -0.03331085 0.36418232 0.3567765 0.26478732 0.07570087 0.10186002 -0.13578442 0.0075035943 0.37160358 -0.03156413 -0.3689089 0.26166192 -0.08134524 -0.012278529 0.0554527 -0.007657813 0.13906385 0.061496835 -0.5326894 0.026531372 0.4410038 0.3089374 0.080454074 0.15335673 -0.23789097 -0.21534543 0.27982232 -0.33673528 0.32812077 0.07829302 0.10159598 -0.064999655 -0.09565534 0.049666658 0.10106244 -0.1775968 -0.0786254 0.07280136 -0.23805353 -0.06274522 -0.49888578 -0.074657805 -0.2126145 -0.19190991 0.20344727 0.23214234 0.17264517 0.15980408 0.14822538 0.19077845 0.06994768 0.19681413 0.28879842 0.21642992 -0.10920379 -0.08299298 0.3449853 0.16038273 0.061683487 0.07752862 -0.09132003 0.3064138 0.034082826 0.012510632 -0.3427206 -0.27450377 0.21830654 -0.21705951 0.06923443 -0.26594207 0.14008868 0.30815822 -0.031913005 -0.081509106 0.08432166 -0.052192923 -0.18232448 0.1094889 -0.26014823 0.27113587 0.22916846 -0.052749734 -0.018715536 -0.032203346 -0.09598726 0.14659975 -0.050120696 -0.12556513 -0.4556513 -0.29991737 0.016158316 -0.06914134 -0.08959932 0.007624495 -0.099219486
